#ifndef WEIGHTS_H
#define WEIGHTS_H

double conv_weight[4][1][25][25] = {
  {
    {
      {
        0.024, -0.018, -0.011, -0.018, 0.042, 0.036, -0.000, -0.002, -0.010, -0.012, 0.037, 0.012, -0.019, 0.012, 0.019, -0.014, 0.045, 0.011, 0.009, 0.021, 0.047, 0.048, 0.039, 0.033, -0.018
      }, 
      {
        0.035, -0.033, 0.040, 0.020, -0.037, -0.006, -0.007, 0.015, 0.034, -0.005, 0.015, -0.003, 0.028, 0.034, -0.001, 0.007, 0.038, -0.028, -0.021, 0.022, 0.041, 0.030, 0.042, -0.002, -0.018
      }, 
      {
        -0.035, 0.034, -0.032, -0.004, 0.040, -0.013, -0.011, -0.010, -0.034, 0.008, 0.021, 0.008, -0.001, -0.017, -0.024, 0.039, 0.028, 0.045, -0.002, 0.046, -0.014, -0.013, 0.017, -0.019, 0.046
      }, 
      {
        0.028, 0.016, -0.007, 0.009, -0.037, -0.036, -0.003, -0.013, 0.008, -0.013, 0.039, 0.023, 0.018, -0.007, 0.004, -0.005, 0.022, 0.046, -0.030, -0.015, 0.046, -0.019, 0.030, 0.044, -0.008
      }, 
      {
        0.020, -0.014, 0.013, -0.018, -0.030, 0.017, 0.018, 0.018, 0.020, -0.025, 0.037, 0.011, 0.004, 0.007, 0.011, 0.011, 0.044, 0.026, 0.035, 0.043, 0.047, 0.007, 0.045, 0.042, 0.044
      }, 
      {
        0.043, 0.037, 0.041, 0.004, -0.016, -0.001, 0.034, 0.016, -0.022, 0.036, -0.020, 0.014, 0.034, 0.027, -0.007, 0.004, 0.006, -0.030, -0.013, 0.023, -0.024, 0.012, 0.048, 0.011, 0.005
      }, 
      {
        0.031, -0.032, 0.022, 0.026, 0.033, -0.022, 0.011, 0.002, 0.019, -0.020, 0.037, 0.014, -0.007, -0.014, 0.007, 0.001, 0.012, 0.039, -0.003, 0.003, 0.006, 0.035, 0.012, -0.005, 0.020
      }, 
      {
        0.016, 0.030, -0.031, -0.039, -0.002, 0.039, 0.006, -0.004, -0.012, -0.035, 0.014, 0.039, -0.026, -0.032, 0.017, -0.035, 0.003, -0.004, 0.001, -0.002, 0.014, 0.006, -0.007, 0.036, -0.004
      }, 
      {
        -0.008, 0.007, 0.011, 0.023, 0.029, 0.007, 0.005, 0.005, 0.015, -0.030, -0.034, -0.027, 0.035, -0.029, 0.023, -0.033, -0.022, -0.015, 0.024, -0.012, 0.038, 0.010, -0.006, 0.003, 0.022
      }, 
      {
        -0.006, -0.013, -0.035, 0.003, 0.018, 0.006, -0.002, 0.026, -0.027, -0.037, 0.000, -0.039, -0.036, -0.011, 0.021, -0.024, 0.016, -0.038, 0.025, -0.000, -0.037, 0.017, -0.003, -0.028, -0.011
      }, 
      {
        0.017, 0.026, 0.032, -0.035, -0.018, 0.038, 0.008, -0.023, 0.016, -0.039, -0.022, 0.013, -0.014, 0.004, 0.010, 0.013, -0.000, 0.020, 0.026, -0.019, 0.031, 0.003, 0.006, 0.004, 0.035
      }, 
      {
        0.010, 0.020, -0.023, 0.014, -0.010, 0.022, -0.018, 0.014, -0.032, -0.035, 0.007, -0.001, -0.001, -0.040, 0.008, -0.039, -0.027, -0.043, -0.018, 0.004, -0.036, 0.010, 0.015, -0.017, -0.006
      }, 
      {
        -0.000, 0.037, 0.026, 0.027, 0.022, -0.026, -0.041, -0.024, -0.038, -0.004, 0.014, 0.032, 0.003, -0.023, -0.044, -0.013, 0.016, -0.001, -0.015, -0.040, 0.009, 0.034, 0.027, 0.034, 0.004
      }, 
      {
        -0.007, 0.025, -0.011, 0.005, 0.027, -0.019, 0.035, -0.037, -0.009, 0.006, -0.001, -0.004, 0.010, -0.034, -0.016, 0.011, -0.034, 0.012, -0.024, -0.002, -0.034, -0.027, 0.018, 0.004, 0.007
      }, 
      {
        0.006, 0.016, 0.028, -0.022, -0.020, 0.028, -0.037, 0.019, 0.012, -0.026, -0.041, -0.020, 0.027, -0.026, -0.014, -0.007, -0.004, 0.002, -0.031, -0.040, 0.017, -0.007, 0.027, 0.005, 0.027
      }, 
      {
        -0.034, 0.029, 0.012, 0.033, 0.007, 0.025, -0.025, -0.034, -0.032, 0.026, 0.028, -0.028, -0.013, 0.014, -0.047, -0.048, -0.037, -0.007, -0.011, -0.003, 0.005, -0.038, -0.014, -0.014, -0.040
      }, 
      {
        -0.006, -0.038, -0.041, -0.010, -0.030, 0.003, 0.019, -0.040, -0.018, -0.004, 0.005, 0.011, 0.032, 0.021, -0.021, 0.006, -0.032, -0.021, -0.021, 0.012, -0.024, 0.006, 0.006, -0.014, -0.043
      }, 
      {
        -0.017, -0.019, 0.016, 0.019, -0.017, 0.009, -0.006, -0.035, -0.030, -0.033, -0.028, -0.006, -0.022, -0.029, 0.027, -0.045, 0.020, 0.030, -0.040, -0.033, 0.027, 0.014, -0.005, 0.014, -0.036
      }, 
      {
        -0.039, 0.005, 0.011, -0.036, -0.025, 0.037, -0.042, -0.025, 0.033, -0.040, -0.005, 0.018, -0.013, 0.031, -0.021, -0.039, -0.024, -0.003, -0.024, 0.001, -0.036, -0.021, 0.009, -0.001, 0.021
      }, 
      {
        -0.040, -0.028, 0.005, 0.013, 0.028, -0.041, 0.033, 0.008, -0.006, -0.027, 0.023, 0.025, 0.004, -0.007, 0.012, -0.033, 0.013, -0.008, -0.010, -0.014, 0.003, -0.029, -0.037, -0.043, 0.011
      }, 
      {
        0.026, -0.033, 0.001, -0.031, -0.034, -0.033, -0.029, -0.004, 0.010, 0.029, -0.035, -0.012, -0.028, 0.031, -0.000, 0.020, -0.029, 0.004, 0.003, -0.032, 0.016, -0.015, 0.001, 0.016, 0.020
      }, 
      {
        0.026, 0.004, -0.007, 0.022, -0.017, 0.035, 0.030, 0.031, 0.009, 0.013, -0.020, -0.015, -0.022, -0.037, 0.000, 0.015, -0.005, -0.004, 0.001, -0.021, 0.023, -0.041, 0.027, -0.026, 0.015
      }, 
      {
        0.028, 0.038, 0.018, -0.000, -0.015, 0.018, -0.002, -0.010, -0.019, -0.038, 0.024, -0.007, 0.035, 0.008, -0.040, 0.005, -0.022, 0.030, 0.019, -0.021, 0.012, -0.043, -0.043, -0.024, -0.018
      }, 
      {
        0.014, 0.035, -0.008, -0.010, 0.028, -0.008, -0.014, 0.027, -0.018, 0.001, 0.035, 0.040, 0.005, -0.029, -0.013, 0.036, 0.037, 0.028, 0.001, 0.030, 0.029, -0.042, -0.040, -0.034, -0.043
      }, 
      {
        0.027, 0.015, 0.015, -0.030, -0.016, -0.001, -0.004, -0.004, 0.017, -0.002, 0.022, -0.033, -0.035, 0.012, -0.007, 0.011, 0.034, 0.034, 0.009, -0.013, -0.008, -0.038, 0.003, -0.004, -0.025
      }
    }
  }, 
  {
    {
      {
        -0.023, -0.000, 0.023, 0.037, -0.011, -0.026, -0.035, -0.028, -0.008, -0.036, -0.014, -0.027, 0.009, -0.029, 0.022, -0.001, -0.035, -0.024, -0.010, 0.031, -0.040, -0.005, -0.039, 0.009, -0.019
      }, 
      {
        -0.040, -0.028, 0.032, -0.018, 0.015, 0.002, -0.018, -0.042, -0.030, -0.001, 0.017, 0.022, -0.014, -0.032, -0.022, -0.040, 0.005, 0.010, 0.023, -0.043, 0.001, -0.035, 0.003, 0.004, -0.004
      }, 
      {
        0.011, -0.004, 0.023, 0.022, 0.010, -0.013, -0.002, 0.003, 0.023, 0.017, -0.009, -0.025, -0.030, -0.002, -0.007, 0.033, -0.037, -0.002, -0.006, 0.028, -0.019, 0.028, -0.010, -0.039, -0.021
      }, 
      {
        0.026, -0.027, 0.012, -0.025, 0.034, -0.012, 0.029, 0.034, 0.033, 0.012, 0.021, -0.035, -0.004, -0.008, 0.006, -0.018, -0.036, 0.001, 0.005, -0.042, 0.036, -0.001, -0.004, -0.004, -0.013
      }, 
      {
        -0.020, 0.015, 0.020, 0.009, -0.032, 0.005, -0.001, 0.039, -0.024, 0.027, 0.033, 0.023, -0.005, -0.002, -0.041, -0.041, -0.005, -0.032, 0.012, -0.044, -0.021, 0.015, -0.011, 0.037, -0.019
      }, 
      {
        0.027, -0.015, -0.029, 0.027, -0.018, 0.034, 0.004, -0.023, -0.009, 0.004, 0.028, -0.016, 0.002, -0.001, -0.037, 0.027, 0.001, 0.006, -0.034, -0.014, 0.032, 0.002, -0.039, 0.033, -0.017
      }, 
      {
        0.010, 0.005, 0.019, 0.024, 0.016, -0.012, -0.022, 0.034, 0.002, -0.021, 0.033, 0.026, 0.008, -0.001, -0.041, -0.008, 0.012, -0.021, -0.013, -0.009, -0.043, 0.021, -0.038, -0.014, 0.019
      }, 
      {
        -0.011, -0.002, 0.031, -0.016, 0.021, -0.026, 0.017, 0.033, 0.036, -0.025, 0.025, -0.032, -0.004, 0.017, 0.014, -0.005, -0.005, -0.016, 0.004, 0.022, 0.024, 0.037, 0.038, 0.010, -0.013
      }, 
      {
        0.011, -0.021, -0.032, -0.020, 0.005, 0.034, 0.033, -0.009, 0.010, -0.033, -0.030, -0.042, 0.006, 0.031, -0.032, -0.025, -0.043, 0.033, -0.011, 0.007, 0.014, 0.038, 0.012, 0.001, -0.023
      }, 
      {
        0.035, -0.002, -0.015, 0.019, 0.026, 0.020, -0.018, 0.036, -0.022, 0.034, -0.027, 0.002, 0.014, 0.016, -0.029, -0.041, -0.032, -0.040, -0.006, -0.011, -0.029, -0.027, -0.033, 0.023, 0.026
      }, 
      {
        0.008, 0.009, 0.034, -0.009, -0.030, -0.027, -0.007, -0.027, -0.014, 0.009, -0.038, -0.013, -0.021, 0.023, 0.003, 0.027, 0.001, 0.015, -0.041, 0.020, -0.015, 0.036, -0.023, 0.017, 0.011
      }, 
      {
        0.040, 0.043, -0.007, 0.001, -0.027, -0.022, 0.011, 0.023, 0.031, -0.036, 0.005, 0.030, 0.033, 0.031, -0.035, -0.015, 0.010, -0.036, 0.012, 0.035, 0.039, -0.002, -0.021, 0.030, -0.014
      }, 
      {
        -0.002, 0.040, 0.018, -0.002, -0.029, -0.020, 0.032, 0.032, -0.015, 0.033, -0.004, 0.018, -0.016, -0.011, -0.005, 0.036, -0.006, -0.030, -0.028, -0.012, -0.003, 0.033, -0.024, -0.022, 0.039
      }, 
      {
        0.031, -0.032, -0.019, 0.021, 0.037, 0.005, 0.022, -0.004, -0.016, -0.015, -0.013, -0.032, -0.035, -0.014, -0.015, -0.034, 0.001, 0.024, 0.035, -0.024, 0.020, 0.008, 0.015, 0.008, 0.000
      }, 
      {
        -0.036, 0.003, -0.015, 0.042, 0.004, 0.010, -0.020, -0.018, 0.034, -0.028, -0.029, -0.002, -0.036, 0.038, -0.002, -0.006, 0.029, -0.005, -0.011, 0.005, -0.003, 0.016, -0.007, 0.022, 0.005
      }, 
      {
        -0.009, 0.019, 0.040, 0.016, 0.034, 0.035, -0.038, 0.036, -0.010, -0.021, -0.032, -0.006, 0.020, 0.027, 0.027, -0.019, -0.016, -0.009, 0.027, -0.038, -0.003, -0.029, 0.005, 0.038, -0.022
      }, 
      {
        -0.015, 0.003, -0.022, 0.015, 0.030, -0.008, 0.027, 0.019, 0.040, 0.020, 0.006, -0.036, 0.026, -0.004, -0.008, 0.031, 0.012, -0.033, 0.039, 0.009, -0.021, 0.012, 0.034, -0.027, 0.014
      }, 
      {
        0.014, -0.021, 0.018, -0.034, 0.036, -0.021, -0.016, -0.034, -0.037, 0.018, -0.004, -0.014, -0.037, -0.028, -0.021, -0.018, -0.006, -0.020, -0.004, 0.037, -0.025, 0.006, 0.018, 0.007, -0.003
      }, 
      {
        -0.013, 0.040, 0.004, -0.026, 0.038, 0.011, -0.032, -0.017, -0.021, 0.035, 0.037, -0.036, 0.025, 0.034, -0.036, -0.031, 0.025, 0.039, 0.036, -0.031, -0.018, -0.018, 0.034, -0.034, -0.034
      }, 
      {
        0.020, -0.028, 0.024, 0.034, 0.024, -0.008, -0.031, 0.034, 0.042, 0.035, 0.010, 0.017, -0.015, -0.036, 0.001, 0.009, -0.016, 0.032, 0.000, 0.031, 0.035, -0.008, -0.018, 0.017, -0.025
      }, 
      {
        -0.001, 0.020, 0.001, -0.006, 0.016, 0.024, 0.006, 0.017, -0.025, 0.006, 0.029, 0.040, -0.006, 0.008, -0.027, -0.008, -0.035, 0.023, -0.022, -0.013, -0.004, -0.035, -0.020, 0.036, -0.023
      }, 
      {
        -0.009, 0.018, 0.003, -0.032, -0.016, 0.021, -0.016, 0.023, -0.019, -0.025, 0.021, 0.016, 0.023, 0.035, -0.010, 0.005, -0.036, 0.014, -0.035, -0.038, 0.034, 0.031, 0.029, 0.006, 0.029
      }, 
      {
        -0.020, 0.033, 0.022, 0.011, 0.022, -0.034, -0.000, 0.016, 0.009, 0.018, -0.019, -0.022, -0.021, 0.020, -0.029, 0.033, -0.020, -0.013, 0.011, 0.022, -0.036, -0.003, -0.020, -0.020, -0.001
      }, 
      {
        0.029, -0.018, 0.014, 0.035, 0.011, 0.019, 0.002, -0.011, 0.021, 0.011, 0.011, -0.015, -0.018, -0.012, 0.014, 0.009, 0.006, 0.003, -0.025, 0.004, 0.018, -0.005, -0.019, 0.019, -0.009
      }, 
      {
        -0.019, 0.010, -0.034, 0.004, -0.016, 0.007, 0.029, 0.007, 0.034, 0.038, -0.000, -0.000, 0.030, -0.004, 0.012, 0.011, 0.012, 0.036, 0.012, 0.004, 0.013, 0.018, 0.020, 0.038, -0.027
      }
    }
  }, 
  {
    {
      {
        0.004, 0.025, -0.019, 0.004, 0.013, 0.025, -0.007, 0.025, 0.015, 0.026, -0.035, -0.032, -0.041, -0.017, 0.037, -0.020, 0.009, -0.020, 0.020, -0.036, 0.027, -0.020, -0.034, 0.005, -0.028
      }, 
      {
        0.021, 0.036, -0.024, 0.010, -0.030, -0.024, 0.030, -0.024, -0.006, 0.002, 0.009, -0.027, -0.018, -0.024, 0.033, -0.041, 0.010, -0.010, 0.028, 0.037, 0.009, -0.022, -0.001, 0.013, -0.037
      }, 
      {
        -0.004, -0.023, 0.039, -0.026, 0.016, 0.024, 0.033, 0.014, -0.014, -0.034, -0.028, 0.027, 0.012, 0.001, 0.016, -0.008, -0.036, 0.029, 0.007, -0.017, -0.013, -0.040, -0.036, -0.011, -0.005
      }, 
      {
        -0.006, -0.026, -0.004, 0.015, 0.032, -0.032, 0.015, -0.036, -0.039, 0.003, 0.013, 0.019, -0.022, -0.009, 0.026, -0.031, -0.008, 0.003, -0.030, -0.001, -0.036, -0.018, 0.025, 0.010, 0.021
      }, 
      {
        0.044, 0.002, 0.042, 0.010, 0.002, 0.018, 0.034, 0.033, 0.029, 0.031, -0.034, 0.020, -0.015, -0.028, 0.004, 0.011, -0.028, 0.012, -0.008, -0.022, 0.001, 0.028, -0.000, 0.030, -0.021
      }, 
      {
        -0.017, -0.028, 0.034, -0.004, 0.028, -0.005, 0.000, 0.028, 0.034, 0.027, -0.004, -0.020, -0.011, 0.000, 0.028, -0.043, 0.001, -0.006, -0.031, -0.017, -0.028, -0.025, 0.011, 0.033, -0.039
      }, 
      {
        0.035, 0.038, 0.021, 0.010, 0.032, 0.025, 0.020, -0.007, 0.018, -0.011, -0.034, -0.014, 0.012, -0.036, -0.022, 0.028, 0.007, -0.032, -0.039, 0.012, -0.022, -0.023, -0.037, -0.009, -0.010
      }, 
      {
        0.041, -0.000, -0.015, 0.003, -0.033, -0.011, 0.013, -0.003, -0.024, 0.006, 0.026, -0.021, -0.008, 0.013, 0.014, 0.021, -0.005, 0.001, 0.003, -0.037, -0.044, 0.014, 0.027, 0.033, -0.043
      }, 
      {
        -0.002, 0.028, 0.000, -0.020, 0.028, -0.011, 0.013, -0.023, 0.033, 0.021, -0.004, -0.030, -0.035, 0.017, -0.020, 0.033, -0.023, -0.024, 0.014, -0.013, -0.021, 0.001, 0.021, -0.043, -0.020
      }, 
      {
        0.042, -0.001, -0.007, 0.022, -0.004, 0.018, -0.037, 0.012, -0.027, 0.016, -0.002, -0.027, 0.025, -0.035, -0.018, -0.011, -0.013, -0.037, -0.011, 0.004, -0.013, 0.003, -0.016, -0.027, 0.022
      }, 
      {
        0.043, 0.012, 0.001, -0.006, 0.030, 0.021, 0.032, -0.020, -0.027, 0.016, -0.034, -0.009, 0.037, 0.002, -0.039, -0.040, 0.028, -0.027, 0.031, -0.004, -0.011, -0.035, -0.008, 0.026, -0.008
      }, 
      {
        -0.025, -0.017, -0.031, -0.017, -0.005, -0.036, 0.020, -0.026, 0.008, 0.011, -0.028, -0.035, -0.009, 0.001, 0.033, -0.005, 0.014, -0.010, -0.040, 0.025, -0.002, 0.012, 0.023, -0.043, 0.001
      }, 
      {
        -0.028, -0.033, 0.015, 0.032, 0.024, -0.023, -0.037, -0.011, -0.036, 0.040, 0.024, 0.016, -0.003, -0.013, -0.000, -0.020, 0.011, 0.011, -0.008, -0.025, -0.030, -0.028, 0.026, -0.040, -0.014
      }, 
      {
        0.030, -0.031, -0.017, 0.032, -0.021, 0.015, 0.005, 0.026, 0.039, 0.008, 0.003, 0.031, 0.031, -0.017, -0.031, -0.018, 0.030, 0.019, -0.028, -0.026, -0.020, -0.005, -0.036, -0.010, -0.010
      }, 
      {
        0.016, 0.011, 0.003, -0.034, -0.011, -0.022, -0.013, -0.034, 0.020, -0.032, -0.016, -0.025, -0.019, -0.011, 0.012, 0.031, 0.031, 0.037, -0.038, 0.039, 0.025, -0.029, 0.000, -0.003, -0.019
      }, 
      {
        0.009, -0.005, -0.021, 0.038, 0.035, 0.017, -0.004, 0.015, 0.039, -0.007, 0.016, 0.011, -0.021, -0.014, 0.011, 0.010, -0.027, 0.010, -0.020, -0.019, 0.018, 0.005, 0.023, -0.009, 0.002
      }, 
      {
        0.012, 0.032, 0.032, -0.008, 0.004, 0.037, 0.013, -0.020, -0.029, -0.035, 0.002, 0.001, -0.011, -0.017, 0.024, 0.029, 0.027, 0.014, 0.023, 0.030, -0.037, 0.036, 0.031, 0.035, -0.022
      }, 
      {
        -0.010, 0.024, -0.035, 0.042, -0.026, 0.009, 0.016, 0.039, 0.035, 0.016, 0.019, 0.022, 0.031, 0.035, 0.030, 0.026, 0.025, -0.030, 0.013, 0.023, 0.014, 0.031, 0.029, -0.017, -0.031
      }, 
      {
        0.022, -0.037, 0.025, 0.013, -0.036, -0.037, 0.035, -0.003, -0.011, 0.024, 0.023, -0.030, 0.007, -0.011, -0.030, -0.003, 0.035, 0.014, -0.019, -0.004, 0.028, -0.030, -0.012, -0.019, -0.017
      }, 
      {
        -0.009, 0.011, -0.021, 0.035, -0.025, 0.036, 0.008, -0.031, 0.012, 0.034, -0.008, 0.036, 0.004, 0.001, -0.012, 0.000, -0.011, -0.009, -0.010, 0.022, -0.030, -0.024, -0.009, -0.030, -0.023
      }, 
      {
        0.036, 0.032, 0.005, -0.016, 0.031, 0.013, -0.037, -0.008, -0.001, 0.019, 0.011, -0.023, 0.008, -0.015, 0.034, 0.034, 0.021, -0.009, -0.030, -0.009, 0.022, -0.011, 0.006, -0.034, -0.023
      }, 
      {
        -0.006, 0.016, 0.008, -0.012, -0.024, -0.025, -0.030, -0.032, -0.002, 0.005, 0.001, 0.041, 0.009, -0.030, 0.035, 0.006, 0.042, 0.009, 0.030, -0.031, 0.043, 0.043, 0.003, -0.027, -0.025
      }, 
      {
        0.037, 0.041, -0.032, -0.035, 0.027, -0.031, 0.033, 0.023, -0.009, -0.032, -0.029, -0.001, -0.029, -0.027, -0.002, 0.008, 0.037, 0.038, -0.028, -0.002, -0.009, 0.042, 0.042, -0.002, 0.019
      }, 
      {
        -0.013, 0.018, -0.017, 0.033, -0.029, 0.032, 0.010, 0.034, -0.034, -0.035, 0.004, 0.041, -0.004, 0.031, 0.044, 0.037, 0.017, -0.015, 0.031, 0.001, 0.044, 0.032, 0.000, -0.016, 0.005
      }, 
      {
        0.029, -0.033, 0.017, 0.037, -0.037, 0.003, -0.022, 0.019, -0.030, 0.024, 0.032, -0.028, -0.024, 0.025, 0.044, -0.030, 0.037, -0.029, -0.010, -0.010, -0.008, -0.031, 0.030, -0.019, 0.023
      }
    }
  }, 
  {
    {
      {
        0.005, -0.010, -0.015, 0.038, 0.026, -0.030, 0.026, -0.016, 0.022, 0.012, -0.005, 0.042, 0.036, -0.026, -0.024, -0.015, 0.032, 0.035, -0.019, 0.023, 0.025, 0.011, 0.016, -0.026, 0.032
      }, 
      {
        0.030, -0.015, 0.017, -0.037, -0.035, -0.036, 0.023, -0.016, -0.006, -0.004, 0.030, 0.024, -0.023, 0.017, 0.039, 0.036, -0.010, -0.000, 0.036, 0.047, 0.028, -0.025, 0.021, 0.009, 0.019
      }, 
      {
        -0.012, 0.035, -0.038, -0.011, 0.021, 0.004, 0.010, 0.015, 0.006, -0.015, 0.039, -0.015, -0.000, -0.025, 0.031, -0.002, 0.025, 0.024, -0.031, 0.045, -0.022, 0.036, 0.018, -0.004, 0.037
      }, 
      {
        -0.026, 0.028, 0.037, 0.034, 0.022, -0.012, -0.010, 0.015, -0.022, -0.035, -0.013, 0.025, 0.029, 0.038, -0.019, -0.006, -0.013, 0.011, 0.028, -0.028, -0.001, 0.047, 0.019, 0.017, -0.030
      }, 
      {
        -0.008, -0.031, 0.011, 0.029, -0.023, 0.003, -0.015, 0.025, 0.013, 0.001, 0.043, -0.001, 0.015, -0.022, -0.027, 0.002, -0.020, 0.008, 0.022, 0.014, 0.039, 0.007, -0.000, 0.026, 0.032
      }, 
      {
        0.027, -0.002, -0.028, 0.009, 0.003, -0.015, 0.012, 0.033, -0.035, 0.004, 0.022, 0.026, -0.004, -0.021, 0.002, 0.005, -0.018, -0.018, -0.009, 0.001, 0.018, 0.001, 0.010, -0.013, 0.044
      }, 
      {
        -0.023, -0.033, -0.015, -0.003, -0.015, -0.027, -0.006, -0.005, -0.031, -0.034, -0.015, 0.016, 0.035, -0.012, 0.004, -0.018, 0.045, -0.024, -0.001, 0.040, -0.021, -0.025, 0.017, 0.026, 0.046
      }, 
      {
        0.021, 0.008, 0.037, -0.027, 0.010, -0.018, 0.030, 0.026, -0.013, -0.008, -0.030, -0.009, -0.030, -0.008, 0.043, 0.006, 0.006, 0.013, -0.002, 0.004, -0.014, 0.032, 0.033, -0.025, 0.028
      }, 
      {
        -0.009, 0.013, 0.033, 0.038, -0.006, 0.041, 0.029, -0.031, -0.030, 0.031, -0.023, 0.028, 0.040, 0.011, -0.030, 0.040, -0.002, -0.015, -0.027, 0.044, 0.029, -0.006, -0.012, 0.003, 0.037
      }, 
      {
        0.013, 0.045, -0.013, -0.024, 0.038, 0.031, 0.043, 0.038, 0.008, -0.018, -0.024, -0.003, 0.014, -0.016, 0.012, 0.044, 0.046, 0.040, -0.025, -0.030, 0.033, -0.009, 0.030, 0.040, 0.040
      }, 
      {
        0.036, -0.014, 0.025, 0.018, 0.046, 0.006, 0.028, 0.038, 0.026, -0.006, -0.001, -0.002, 0.011, -0.004, -0.024, 0.017, 0.022, 0.024, -0.027, 0.044, 0.019, -0.017, 0.003, 0.005, -0.033
      }, 
      {
        -0.021, -0.020, -0.011, 0.044, 0.003, -0.021, 0.024, 0.032, 0.005, -0.032, -0.025, 0.008, -0.025, 0.001, 0.016, 0.039, 0.047, 0.044, 0.014, -0.004, -0.012, 0.041, 0.035, -0.009, 0.025
      }, 
      {
        0.006, 0.020, 0.016, -0.013, 0.008, -0.009, 0.034, 0.019, -0.004, 0.036, -0.009, 0.043, 0.039, -0.023, -0.023, -0.026, 0.014, 0.025, 0.001, 0.010, -0.013, -0.009, -0.018, 0.021, 0.038
      }, 
      {
        -0.012, 0.000, -0.016, 0.026, -0.011, -0.028, 0.020, -0.017, -0.002, 0.042, 0.010, -0.014, -0.003, 0.045, -0.026, 0.022, -0.016, 0.042, -0.024, 0.027, -0.000, -0.021, 0.031, 0.042, 0.028
      }, 
      {
        -0.022, 0.016, 0.021, 0.037, 0.042, -0.003, -0.004, 0.027, -0.029, 0.033, 0.025, 0.030, 0.006, -0.004, -0.019, 0.031, -0.008, -0.004, 0.040, 0.013, 0.036, 0.012, 0.021, 0.001, 0.034
      }, 
      {
        0.039, 0.007, 0.046, 0.034, -0.001, 0.032, 0.016, 0.010, 0.044, -0.009, 0.039, -0.022, 0.028, 0.009, -0.016, 0.036, 0.013, 0.009, 0.011, 0.028, -0.023, 0.001, 0.031, -0.026, -0.003
      }, 
      {
        0.039, 0.013, -0.013, -0.020, 0.017, 0.010, 0.037, 0.012, -0.009, 0.043, 0.009, 0.023, -0.021, -0.010, 0.028, 0.028, -0.024, 0.027, -0.022, 0.042, 0.026, 0.041, 0.011, -0.014, 0.011
      }, 
      {
        0.046, 0.020, 0.047, -0.013, -0.031, 0.038, -0.005, 0.007, 0.024, 0.017, -0.012, 0.020, -0.032, -0.020, 0.007, 0.040, 0.044, -0.033, 0.018, -0.005, -0.016, 0.004, 0.030, 0.001, 0.023
      }, 
      {
        -0.029, 0.046, 0.033, 0.002, 0.043, 0.017, -0.015, -0.005, 0.009, 0.044, -0.014, -0.023, 0.006, 0.037, -0.021, -0.017, 0.015, 0.005, 0.021, -0.008, -0.024, -0.021, -0.014, 0.005, 0.011
      }, 
      {
        0.013, 0.021, 0.013, -0.010, -0.016, 0.010, 0.016, 0.015, 0.012, 0.011, 0.016, 0.020, -0.025, 0.008, -0.010, 0.022, 0.011, -0.016, 0.021, -0.036, -0.008, -0.035, 0.029, -0.005, -0.031
      }, 
      {
        0.003, 0.039, 0.022, 0.029, 0.004, -0.022, -0.032, 0.035, 0.037, 0.009, -0.015, -0.010, 0.013, -0.023, 0.036, -0.034, -0.003, 0.037, 0.014, -0.015, -0.001, 0.039, -0.004, -0.020, -0.027
      }, 
      {
        0.002, 0.005, 0.005, -0.023, 0.044, -0.018, 0.009, -0.029, -0.008, -0.021, 0.006, 0.029, 0.020, 0.035, -0.019, -0.036, 0.002, 0.010, -0.024, 0.009, 0.008, 0.009, -0.013, -0.030, -0.032
      }, 
      {
        0.037, 0.018, 0.040, 0.028, 0.036, 0.017, 0.013, 0.006, 0.018, 0.008, -0.024, -0.004, 0.037, 0.013, -0.031, 0.022, -0.008, -0.007, -0.024, 0.005, 0.007, 0.013, -0.021, 0.036, 0.008
      }, 
      {
        -0.007, -0.020, 0.003, 0.031, -0.021, -0.010, -0.011, -0.023, 0.027, 0.018, 0.022, 0.030, -0.025, 0.034, 0.037, 0.018, 0.035, 0.010, 0.038, 0.003, -0.035, -0.032, 0.035, 0.029, 0.034
      }, 
      {
        -0.022, 0.033, -0.017, -0.026, -0.011, 0.019, 0.028, -0.027, -0.010, 0.036, -0.002, -0.010, 0.037, -0.033, -0.013, -0.008, -0.037, 0.011, 0.024, -0.011, -0.001, -0.031, 0.021, 0.013, -0.027
      }
    }
  }
};

double conv_bias[4] = {
  0.016, 0.020, 0.035, -0.003
};

double lin1_weight[32][5776] = {
  {
    0.010, 0.003, 0.005, 0.001, -0.001, -0.007, -0.002, -0.001, 0.013, 0.002, 0.009, -0.001, 0.005, 0.012, -0.002, -0.008, -0.009, 0.007, 0.004, -0.009, -0.002, 0.012, -0.013, -0.009, -0.001, -0.009, -0.003, 0.011, 0.002, 0.008, 0.001, -0.007, -0.006, 0.011, -0.006, -0.004, -0.012, 0.003, -0.011, -0.001, 0.004, 0.009, -0.001, 0.010, 0.011, 0.010, 0.013, 0.005, -0.001, 0.004, 0.013, -0.012, 0.010, -0.000, -0.009, 0.011, 0.002, 0.001, 0.002, 0.012, 0.002, 0.001, -0.003, -0.008, 0.003, 0.013, 0.004, -0.009, 0.005, 0.003, -0.005, -0.001, -0.005, 0.007, -0.001, -0.011, 0.002, -0.012, -0.000, -0.013, 0.006, 0.009, 0.011, -0.008, 0.009, 0.002, 0.002, -0.008, -0.012, -0.013, -0.001, -0.002, -0.006, -0.011, -0.008, -0.006, -0.001, 0.008, -0.008, 0.001, 0.001, 0.003, -0.010, -0.003, 0.000, -0.007, -0.004, 0.011, -0.007, 0.001, 0.003, 0.000, 0.005, -0.012, 0.002, -0.006, -0.009, 0.004, -0.003, 0.003, 0.007, -0.008, -0.007, 0.001, 0.006, -0.001, 0.002, 0.007, 0.002, 0.002, 0.007, 0.005, 0.000, -0.005, -0.009, 0.005, -0.008, 0.007, -0.004, 0.011, 0.012, -0.012, 0.001, 0.003, -0.011, -0.011, -0.009, -0.009, -0.002, 0.011, -0.007, 0.006, -0.007, -0.003, 0.003, 0.003, -0.006, -0.010, 0.006, 0.002, -0.009, -0.003, 0.004, -0.002, 0.013, -0.008, -0.010, 0.011, -0.004, -0.008, -0.010, 0.011, -0.010, 0.001, -0.003, 0.008, 0.005, 0.008, 0.003, 0.001, 0.010, 0.002, -0.012, 0.005, -0.010, -0.002, 0.005, -0.001, -0.006, 0.005, -0.006, -0.008, -0.009, -0.006, 0.005, -0.006, -0.003, -0.005, -0.001, 0.004, 0.003, 0.011, -0.006, 0.008, -0.010, -0.011, 0.009, -0.011, 0.012, 0.006, 0.002, 0.001, 0.003, -0.001, -0.003, -0.002, 0.006, -0.005, -0.005, -0.011, -0.008, -0.001, 0.010, 0.005, 0.001, 0.011, 0.004, -0.008, 0.012, -0.011, 0.009, 0.006, -0.008, -0.013, 0.012, -0.008, -0.011, 0.009, 0.012, 0.009, 0.006, -0.001, -0.001, 0.004, 0.002, 0.008, -0.011, -0.002, 0.011, 0.005, -0.012, 0.001, -0.006, -0.003, -0.012, 0.012, -0.008, -0.002, -0.008, -0.008, 0.012, 0.006, 0.003, -0.010, -0.004, -0.009, 0.004, 0.012, 0.006, -0.008, -0.005, -0.008, 0.009, -0.003, 0.010, -0.004, -0.007, 0.002, 0.002, 0.004, -0.006, 0.001, -0.008, -0.011, -0.012, -0.000, 0.007, 0.012, -0.002, -0.006, 0.008, -0.013, 0.004, 0.008, -0.009, 0.005, 0.002, 0.004, 0.008, 0.013, -0.005, -0.011, 0.002, -0.003, -0.009, 0.011, 0.009, -0.012, 0.008, 0.001, -0.003, -0.003, 0.010, 0.005, -0.004, 0.012, 0.001, 0.002, -0.008, 0.000, 0.009, 0.013, -0.013, -0.008, -0.003, 0.011, 0.011, -0.012, -0.008, -0.005, -0.005, -0.008, -0.005, 0.006, 0.013, 0.008, -0.000, -0.011, -0.013, -0.006, -0.004, 0.007, 0.005, 0.007, -0.009, -0.011, -0.004, -0.002, -0.012, 0.010, 0.003, 0.004, 0.002, -0.010, -0.008, -0.007, -0.006, -0.005, -0.007, -0.010, -0.004, -0.002, -0.003, 0.010, 0.007, -0.013, 0.004, 0.010, -0.010, 0.001, -0.010, -0.009, -0.008, -0.005, 0.006, 0.001, 0.006, 0.010, -0.002, -0.004, 0.000, 0.006, 0.004, -0.012, 0.008, 0.002, 0.005, -0.008, 0.006, 0.009, 0.000, -0.007, 0.000, 0.009, -0.002, -0.008, -0.001, 0.013, 0.005, -0.013, -0.007, 0.007, 0.001, 0.013, 0.003, 0.001, -0.011, 0.013, 0.008, -0.006, 0.009, 0.006, 0.013, -0.007, -0.009, -0.005, -0.008, -0.006, 0.011, 0.010, 0.001, 0.009, -0.007, -0.003, -0.000, -0.001, -0.007, -0.011, -0.007, 0.011, 0.004, -0.013, -0.011, 0.004, 0.008, -0.004, 0.011, -0.008, -0.003, 0.002, -0.011, 0.008, -0.005, -0.003, -0.011, 0.009, 0.004, 0.013, 0.008, 0.012, -0.003, -0.008, 0.002, 0.002, 0.002, -0.004, 0.011, -0.009, -0.003, 0.001, -0.006, -0.005, -0.000, -0.010, -0.011, -0.008, 0.006, 0.002, -0.007, -0.002, 0.010, -0.010, -0.011, -0.010, -0.009, 0.013, 0.012, -0.011, 0.002, 0.011, -0.002, -0.004, 0.002, 0.001, -0.004, -0.004, 0.007, -0.010, 0.008, -0.007, -0.007, 0.007, 0.011, -0.012, 0.001, 0.009, -0.011, 0.008, 0.005, 0.003, -0.006, 0.005, 0.010, 0.010, -0.009, 0.011, -0.001, 0.003, 0.012, 0.012, -0.003, 0.003, -0.008, -0.006, -0.000, 0.003, -0.006, -0.006, 0.008, 0.012, -0.009, 0.003, -0.001, -0.007, 0.004, -0.009, -0.012, -0.007, 0.012, -0.010, -0.004, 0.012, -0.003, -0.007, -0.009, -0.013, 0.012, -0.013, 0.002, 0.004, -0.009, -0.012, -0.008, 0.005, 0.012, -0.009, -0.003, 0.006, 0.013, -0.011, -0.012, 0.005, -0.004, 0.004, -0.001, 0.013, 0.013, 0.012, 0.011, -0.010, -0.012, -0.006, -0.005, -0.003, 0.002, 0.005, -0.007, 0.012, -0.001, 0.006, 0.011, -0.002, 0.001, 0.010, 0.004, -0.006, 0.001, 0.005, -0.001, 0.010, 0.008, 0.001, 0.000, -0.005, -0.012, 0.002, 0.006, -0.013, 0.013, -0.009, -0.004, -0.002, 0.005, 0.006, -0.010, -0.002, -0.007, 0.012, 0.012, 0.008, 0.008, -0.006, -0.009, -0.003, 0.009, 0.006, 0.009, 0.008, -0.002, 0.008, 0.009, -0.012, -0.010, 0.005, 0.009, -0.005, 0.007, 0.012, -0.008, -0.003, 0.003, -0.010, -0.009, -0.012, -0.012, -0.002, 0.008, -0.000, 0.004, 0.001, 0.004, -0.003, 0.006, 0.007, 0.006, 0.003, -0.009, 0.009, -0.010, 0.002, -0.003, -0.013, 0.002, -0.001, -0.012, 0.006, -0.007, 0.001, 0.000, 0.002, -0.004, -0.011, 0.011, -0.002, -0.009, 0.000, 0.012, -0.006, -0.004, 0.002, -0.012, -0.002, 0.001, 0.008, -0.006, -0.000, 0.004, -0.012, 0.003, 0.003, -0.005, 0.011, -0.004, 0.013, 0.001, 0.005, -0.007, 0.010, 0.000, 0.007, -0.005, -0.006, 0.004, 0.003, 0.005, -0.003, 0.006, 0.002, -0.004, -0.003, 0.011, -0.006, -0.000, 0.004, 0.002, -0.007, 0.008, -0.011, 0.001, 0.001, -0.011, 0.012, -0.003, 0.001, -0.004, 0.006, 0.001, 0.006, 0.006, -0.008, -0.005, -0.010, -0.004, 0.008, -0.008, -0.002, 0.006, 0.013, 0.008, -0.000, 0.009, -0.011, -0.006, 0.013, -0.004, -0.001, -0.011, 0.012, -0.009, -0.003, 0.003, 0.007, -0.009, 0.009, -0.009, 0.001, 0.009, -0.002, -0.004, -0.010, -0.011, -0.010, 0.010, 0.010, 0.012, -0.004, -0.000, 0.006, 0.004, -0.003, 0.005, 0.002, -0.013, -0.013, 0.009, 0.001, -0.000, 0.005, 0.011, -0.004, -0.013, 0.003, 0.010, -0.008, 0.004, 0.010, 0.011, -0.013, 0.005, 0.003, 0.003, 0.010, 0.002, 0.005, -0.010, -0.011, -0.012, -0.003, -0.008, -0.006, 0.008, -0.009, 0.000, 0.006, 0.003, -0.010, -0.009, -0.008, -0.003, 0.010, 0.012, 0.000, 0.000, 0.003, 0.011, -0.011, -0.009, -0.011, 0.001, 0.004, 0.012, 0.004, 0.007, -0.008, 0.003, 0.010, 0.003, 0.011, -0.006, 0.011, 0.001, -0.001, -0.004, 0.013, -0.006, 0.007, 0.008, -0.004, 0.003, 0.003, 0.003, 0.007, -0.001, -0.005, -0.008, -0.002, -0.013, -0.006, -0.010, 0.000, 0.006, -0.009, -0.010, -0.009, 0.011, 0.002, -0.011, 0.000, 0.002, -0.013, -0.001, 0.012, 0.011, -0.008, 0.009, -0.010, 0.004, 0.011, 0.012, 0.002, -0.001, 0.001, -0.008, 0.006, -0.012, -0.010, -0.008, 0.002, 0.009, 0.001, 0.000, 0.005, 0.010, -0.003, 0.006, -0.010, 0.003, 0.004, -0.011, -0.013, -0.001, -0.011, -0.004, -0.012, -0.003, -0.003, 0.003, 0.006, -0.007, -0.010, 0.008, -0.006, -0.000, 0.001, 0.010, 0.007, -0.006, 0.009, 0.009, 0.000, -0.009, 0.007, 0.004, -0.007, -0.006, -0.011, -0.001, 0.010, 0.002, 0.004, -0.004, 0.005, 0.003, -0.002, -0.006, -0.004, -0.005, -0.002, -0.010, -0.006, -0.000, 0.004, -0.001, -0.009, -0.002, 0.008, -0.005, 0.003, -0.007, -0.008, -0.011, 0.004, -0.007, 0.003, 0.010, 0.002, -0.003, -0.004, -0.013, 0.001, 0.006, -0.008, -0.003, 0.011, 0.010, -0.004, 0.005, 0.013, -0.012, -0.002, 0.003, -0.003, 0.006, -0.004, -0.004, -0.008, 0.001, -0.008, -0.002, 0.001, -0.007, 0.007, -0.004, 0.004, -0.012, 0.011, 0.011, 0.005, -0.012, -0.002, -0.012, -0.011, 0.007, 0.003, 0.003, -0.011, 0.002, -0.011, 0.003, -0.007, -0.010, 0.005, 0.009, 0.005, 0.005, 0.001, -0.007, 0.001, 0.007, 0.004, -0.000, 0.013, 0.006, 0.005, -0.012, -0.007, -0.004, -0.012, 0.003, 0.009, -0.006, -0.008, -0.009, -0.001, 0.005, -0.010, -0.007, 0.009, -0.013, 0.006, 0.012, 0.013, 0.000, 0.002, -0.008, 0.009, -0.000, 0.006, 0.010, -0.008, -0.007, -0.010, 0.001, -0.005, -0.001, -0.013, -0.006, 0.004, -0.005, -0.008, 0.004, 0.007, 0.010, -0.004, 0.006, 0.008, 0.003, 0.004, -0.011, 0.005, -0.013, 0.002, 0.003, -0.013, 0.012, 0.012, 0.013, -0.003, 0.004, -0.000, 0.009, -0.010, -0.005, -0.005, 0.012, -0.003, 0.004, 0.001, -0.001, 0.002, -0.003, -0.005, 0.007, 0.011, -0.009, 0.013, 0.006, -0.007, -0.006, -0.005, 0.003, 0.002, 0.005, -0.008, -0.000, -0.005, -0.011, 0.004, 0.009, -0.002, -0.010, -0.012, 0.005, 0.006, -0.012, 0.011, 0.009, -0.002, 0.011, 0.005, -0.001, -0.009, -0.002, 0.007, -0.007, -0.007, 0.007, -0.010, 0.011, -0.002, 0.010, -0.006, 0.008, 0.005, 0.001, 0.002, -0.012, 0.006, -0.004, -0.010, 0.012, 0.001, 0.004, -0.011, 0.003, -0.007, -0.009, -0.001, 0.013, 0.011, -0.008, -0.005, -0.001, -0.007, 0.009, 0.007, 0.007, -0.001, 0.011, -0.011, 0.002, 0.004, -0.012, -0.002, 0.006, 0.002, 0.005, -0.002, -0.005, 0.011, -0.012, -0.006, -0.008, -0.010, -0.000, 0.008, -0.010, 0.006, 0.003, -0.010, 0.001, 0.009, -0.001, -0.002, 0.011, 0.012, -0.002, 0.005, 0.007, -0.013, 0.006, -0.011, 0.005, -0.005, 0.000, -0.005, -0.005, 0.006, 0.009, 0.010, 0.012, -0.011, -0.007, -0.002, -0.007, 0.009, 0.001, -0.008, 0.008, -0.004, -0.003, -0.009, 0.007, 0.003, 0.009, -0.004, -0.000, -0.001, 0.008, 0.009, -0.011, -0.011, 0.013, 0.004, 0.012, -0.012, 0.013, 0.007, -0.005, 0.010, -0.002, 0.007, -0.002, -0.013, -0.005, 0.005, 0.012, 0.001, 0.009, -0.012, 0.003, -0.004, 0.002, 0.013, 0.006, 0.009, 0.012, 0.005, -0.009, -0.006, -0.009, -0.007, 0.011, 0.008, 0.003, 0.011, -0.008, 0.007, -0.013, 0.012, -0.013, -0.007, -0.006, 0.006, -0.005, -0.011, -0.009, 0.005, -0.008, -0.002, 0.001, 0.003, -0.003, 0.010, -0.013, -0.008, 0.011, 0.003, 0.005, 0.011, 0.005, -0.000, 0.011, 0.010, -0.013, 0.008, 0.006, -0.011, -0.007, -0.001, -0.001, -0.010, -0.006, 0.006, -0.012, 0.009, 0.008, 0.007, -0.008, -0.008, -0.003, -0.006, 0.007, -0.001, 0.003, 0.005, 0.004, -0.009, 0.003, 0.011, 0.005, 0.002, 0.006, 0.004, -0.004, 0.004, -0.003, -0.004, -0.004, 0.009, 0.012, -0.005, 0.010, -0.004, -0.001, 0.004, -0.002, -0.013, -0.006, -0.007, 0.002, -0.001, 0.013, -0.010, -0.005, -0.004, -0.007, 0.007, -0.002, 0.006, -0.004, 0.011, -0.008, 0.009, -0.012, -0.000, 0.010, -0.007, -0.000, -0.007, -0.008, -0.008, 0.002, -0.006, -0.000, 0.011, 0.009, 0.011, 0.004, 0.001, 0.006, -0.002, -0.005, 0.012, -0.011, -0.001, 0.010, 0.003, -0.004, -0.002, 0.002, 0.006, -0.001, 0.012, -0.006, 0.013, 0.007, 0.008, -0.003, -0.006, -0.008, 0.010, -0.003, -0.003, 0.009, 0.003, 0.012, -0.013, -0.006, 0.006, -0.007, -0.013, 0.000, 0.012, -0.011, -0.001, -0.012, -0.011, -0.011, -0.010, 0.012, -0.012, -0.011, 0.008, 0.008, 0.005, -0.002, -0.007, -0.003, -0.002, -0.004, -0.009, -0.005, -0.004, 0.012, -0.008, 0.013, 0.013, 0.004, 0.001, 0.004, -0.013, -0.006, -0.011, -0.012, 0.005, 0.003, -0.003, 0.006, -0.012, -0.007, -0.013, 0.010, 0.003, 0.000, 0.008, 0.002, 0.006, 0.004, -0.005, -0.001, -0.007, -0.002, -0.007, 0.012, -0.002, 0.003, 0.001, -0.003, -0.007, 0.010, 0.007, 0.011, -0.008, 0.012, -0.003, 0.000, 0.010, 0.007, -0.008, 0.002, 0.009, -0.008, -0.000, -0.001, -0.003, -0.005, -0.008, 0.002, 0.003, -0.011, 0.006, 0.004, -0.011, -0.005, 0.005, 0.006, 0.011, -0.001, 0.013, -0.012, -0.003, -0.005, -0.002, 0.007, -0.013, 0.001, -0.010, -0.010, 0.006, 0.010, 0.004, -0.008, 0.008, -0.003, 0.005, -0.005, -0.003, 0.008, -0.008, 0.009, 0.012, 0.001, 0.006, 0.006, -0.007, -0.009, 0.006, 0.010, 0.001, 0.013, -0.002, 0.007, 0.013, -0.008, -0.008, -0.012, 0.010, 0.009, 0.000, -0.000, 0.006, -0.010, 0.003, 0.008, 0.000, 0.011, 0.004, 0.005, 0.011, -0.012, 0.012, 0.009, -0.002, 0.006, -0.010, 0.010, -0.009, -0.003, -0.009, -0.005, -0.002, 0.007, 0.004, 0.005, -0.009, 0.009, 0.000, 0.006, -0.011, -0.002, 0.001, -0.013, -0.006, -0.012, -0.001, -0.000, -0.008, -0.006, 0.012, 0.000, 0.006, 0.003, 0.001, 0.001, -0.001, 0.003, 0.002, 0.004, 0.008, 0.007, 0.010, 0.011, -0.010, -0.008, -0.004, 0.000, 0.007, 0.010, -0.003, 0.002, -0.012, 0.009, 0.007, 0.001, 0.003, -0.010, -0.002, -0.013, -0.002, 0.007, 0.006, 0.002, -0.005, -0.013, -0.001, 0.004, -0.005, 0.005, -0.010, 0.007, -0.009, -0.000, 0.010, -0.013, 0.000, 0.012, 0.004, 0.000, 0.005, 0.012, -0.012, 0.007, -0.004, 0.009, 0.011, 0.004, 0.003, 0.006, 0.003, 0.005, -0.010, -0.001, -0.007, -0.008, 0.004, -0.012, -0.000, -0.004, -0.004, -0.010, -0.005, -0.012, 0.010, 0.013, 0.003, 0.005, 0.010, -0.001, 0.005, -0.005, 0.002, 0.002, -0.006, -0.007, 0.001, 0.006, -0.002, -0.002, 0.012, -0.011, -0.012, 0.000, -0.007, 0.006, 0.009, 0.000, -0.002, -0.004, -0.012, -0.003, -0.002, 0.009, 0.010, 0.013, 0.008, -0.002, 0.001, -0.009, 0.013, -0.012, 0.005, -0.001, 0.006, 0.009, -0.007, 0.007, -0.009, -0.008, -0.001, -0.000, -0.010, 0.006, -0.004, -0.005, -0.002, 0.011, 0.000, -0.000, -0.012, 0.001, 0.001, -0.006, 0.004, -0.013, 0.013, -0.007, -0.010, -0.012, -0.013, -0.006, -0.005, -0.011, 0.005, 0.001, -0.012, -0.008, 0.003, -0.013, 0.002, 0.003, -0.006, 0.001, -0.000, -0.006, -0.003, -0.004, 0.003, 0.002, -0.004, -0.007, -0.002, -0.005, 0.006, 0.003, -0.002, 0.005, 0.009, 0.008, 0.006, 0.001, -0.006, -0.000, 0.008, 0.009, -0.010, -0.003, -0.004, 0.005, 0.006, -0.002, 0.004, -0.007, -0.008, 0.001, 0.001, 0.005, 0.006, 0.012, 0.010, -0.000, 0.013, 0.009, 0.009, -0.008, -0.001, 0.002, 0.007, 0.001, -0.009, -0.006, -0.012, 0.009, -0.001, 0.002, -0.009, 0.007, 0.012, 0.004, -0.006, -0.013, 0.008, 0.000, 0.008, -0.004, -0.002, -0.002, 0.012, 0.002, 0.012, 0.004, -0.010, 0.000, -0.009, -0.003, -0.002, 0.004, -0.008, 0.012, 0.011, -0.004, -0.012, -0.004, 0.011, 0.008, -0.011, -0.009, -0.010, -0.001, 0.003, 0.005, 0.003, -0.001, -0.003, -0.004, 0.004, 0.011, -0.001, -0.009, 0.004, -0.002, -0.011, -0.002, 0.005, 0.009, 0.003, 0.001, -0.006, 0.011, -0.002, -0.002, 0.001, -0.008, 0.012, -0.011, -0.008, 0.004, -0.009, -0.005, 0.002, -0.007, -0.001, -0.011, -0.005, -0.004, -0.011, -0.005, -0.012, -0.011, 0.006, 0.001, -0.007, 0.002, -0.006, -0.011, 0.004, 0.001, 0.001, -0.012, 0.006, 0.003, 0.010, -0.007, 0.009, 0.002, 0.000, -0.012, -0.010, -0.004, -0.010, -0.006, 0.011, -0.005, -0.009, 0.009, -0.005, 0.009, 0.012, -0.011, 0.004, 0.011, -0.001, 0.012, 0.006, 0.005, 0.005, -0.006, 0.013, -0.011, -0.013, -0.005, -0.008, 0.007, 0.007, 0.008, 0.012, -0.012, 0.001, 0.006, 0.013, 0.013, -0.011, 0.004, 0.011, -0.004, 0.012, 0.010, 0.000, -0.013, -0.003, 0.009, -0.000, 0.011, 0.003, 0.012, 0.009, 0.003, -0.001, -0.000, -0.007, 0.002, 0.007, -0.006, -0.008, -0.010, -0.000, -0.008, -0.009, -0.002, 0.007, -0.006, -0.004, 0.006, -0.007, -0.000, -0.013, -0.004, -0.008, 0.003, -0.006, -0.011, 0.001, 0.001, -0.008, 0.002, 0.012, 0.001, -0.008, 0.011, 0.001, -0.008, -0.002, 0.002, 0.010, -0.007, -0.008, 0.012, 0.010, 0.003, -0.012, -0.010, 0.002, -0.010, -0.006, -0.007, 0.009, 0.008, 0.013, 0.012, 0.000, -0.005, 0.013, 0.003, 0.004, 0.002, 0.007, -0.006, -0.011, -0.010, -0.008, -0.004, -0.006, 0.010, 0.000, -0.013, 0.010, -0.007, -0.000, -0.003, -0.012, -0.007, 0.011, 0.012, 0.003, 0.006, -0.007, -0.011, 0.010, 0.001, 0.011, -0.003, 0.009, 0.012, -0.001, -0.012, 0.001, -0.012, -0.013, -0.003, 0.002, -0.007, -0.005, -0.013, 0.007, 0.000, 0.002, -0.012, -0.012, 0.002, 0.001, 0.004, 0.013, -0.009, -0.005, 0.007, 0.011, -0.001, 0.012, 0.012, 0.009, 0.013, 0.009, 0.002, 0.003, -0.005, -0.002, 0.004, 0.012, 0.001, -0.010, 0.005, -0.009, 0.004, -0.002, -0.011, -0.011, 0.007, 0.007, -0.007, 0.008, -0.005, -0.001, 0.001, -0.005, 0.010, 0.006, -0.003, 0.008, -0.013, 0.009, -0.004, -0.012, 0.006, -0.006, -0.012, 0.011, 0.001, 0.012, 0.013, 0.003, -0.010, -0.003, 0.008, -0.011, -0.003, 0.004, 0.003, 0.004, -0.009, -0.001, 0.005, 0.005, 0.008, -0.003, -0.001, -0.012, 0.004, 0.001, -0.013, 0.010, -0.005, -0.013, 0.004, -0.003, -0.011, 0.007, 0.003, -0.010, -0.011, -0.003, -0.005, 0.000, -0.007, -0.012, -0.010, -0.008, -0.000, -0.006, -0.005, -0.007, 0.003, 0.008, -0.006, 0.002, -0.004, -0.007, 0.002, -0.008, -0.009, 0.001, 0.001, 0.011, -0.005, -0.012, -0.012, -0.009, 0.000, 0.000, -0.007, 0.010, 0.010, 0.003, 0.004, 0.009, 0.011, 0.003, 0.004, -0.011, 0.002, 0.001, -0.012, -0.005, 0.007, -0.008, 0.006, 0.004, 0.006, 0.001, -0.006, 0.000, 0.010, 0.008, 0.004, 0.003, -0.011, -0.009, -0.001, -0.007, -0.010, 0.002, 0.010, 0.012, 0.003, -0.006, 0.011, 0.002, 0.006, 0.003, 0.004, 0.003, 0.000, 0.002, -0.013, -0.004, -0.009, -0.005, 0.008, -0.002, 0.002, 0.004, -0.006, 0.001, -0.008, 0.000, -0.000, 0.010, 0.011, 0.006, -0.009, 0.005, -0.001, 0.007, -0.008, 0.013, -0.012, 0.000, 0.012, -0.012, 0.010, -0.001, -0.009, -0.011, -0.001, -0.008, -0.008, -0.012, -0.007, -0.004, 0.013, 0.010, 0.001, 0.001, 0.007, 0.011, 0.009, -0.001, 0.006, -0.011, -0.005, -0.006, -0.012, -0.008, -0.003, -0.006, 0.009, -0.002, -0.009, 0.011, -0.005, -0.007, -0.011, 0.008, 0.003, 0.005, 0.006, 0.004, -0.008, 0.004, 0.001, 0.003, 0.000, -0.007, 0.011, 0.012, 0.010, 0.003, -0.011, -0.008, 0.009, 0.004, -0.009, 0.009, -0.012, -0.009, 0.006, -0.009, 0.010, 0.005, 0.009, 0.010, 0.007, -0.002, 0.002, 0.005, 0.012, -0.009, -0.012, 0.005, 0.008, -0.002, -0.001, 0.011, -0.009, 0.008, -0.004, -0.004, 0.012, 0.008, -0.002, -0.005, -0.004, -0.000, 0.007, 0.011, 0.005, 0.002, 0.002, -0.002, -0.012, 0.007, 0.006, -0.010, 0.005, 0.004, 0.008, -0.006, 0.005, -0.006, -0.006, 0.011, -0.012, -0.009, -0.002, -0.010, -0.010, -0.010, 0.002, 0.008, -0.002, 0.002, 0.011, -0.005, 0.001, -0.009, -0.003, 0.008, -0.006, 0.001, -0.004, 0.005, -0.010, -0.009, 0.000, -0.007, 0.000, 0.003, 0.007, -0.002, -0.004, 0.004, -0.001, 0.007, 0.010, 0.008, -0.002, 0.008, 0.012, -0.005, -0.008, -0.007, 0.003, 0.011, 0.008, 0.002, 0.011, 0.010, 0.007, 0.006, 0.004, -0.004, -0.011, -0.003, 0.010, -0.007, -0.005, 0.012, -0.003, 0.005, 0.003, -0.002, -0.000, 0.003, 0.006, 0.008, 0.003, -0.004, -0.008, -0.013, 0.008, -0.001, -0.012, 0.000, -0.008, -0.001, -0.008, 0.006, -0.011, 0.013, -0.010, -0.008, -0.001, -0.011, -0.004, -0.011, 0.007, -0.012, -0.000, -0.009, -0.004, -0.002, 0.009, -0.006, -0.005, -0.001, -0.002, 0.010, 0.011, 0.011, -0.001, 0.008, 0.005, 0.003, -0.001, -0.003, -0.006, 0.003, -0.006, 0.006, 0.012, -0.003, -0.001, -0.001, 0.000, 0.009, -0.008, 0.012, 0.005, -0.005, 0.008, -0.008, -0.007, 0.004, -0.005, -0.005, 0.004, -0.010, -0.013, 0.011, 0.008, -0.007, -0.008, 0.009, 0.010, 0.013, -0.006, -0.009, -0.008, -0.010, 0.003, -0.010, 0.009, -0.010, -0.000, 0.010, -0.012, 0.005, -0.005, -0.005, -0.013, -0.009, -0.008, 0.012, 0.003, -0.012, 0.000, 0.007, -0.002, 0.012, 0.008, 0.006, -0.008, -0.013, -0.012, 0.003, -0.002, -0.001, -0.010, -0.012, 0.003, -0.008, 0.008, -0.003, -0.009, 0.007, -0.005, -0.010, 0.004, -0.006, 0.011, 0.001, 0.006, -0.002, 0.010, -0.005, 0.007, 0.011, 0.011, -0.005, -0.012, 0.004, 0.002, -0.006, -0.001, 0.003, 0.011, -0.006, 0.011, -0.002, 0.007, 0.003, 0.006, 0.011, -0.000, -0.004, 0.010, 0.001, -0.002, 0.011, -0.002, -0.013, 0.003, -0.009, -0.011, -0.008, 0.012, -0.009, -0.007, -0.000, 0.001, 0.005, -0.009, -0.003, 0.009, -0.001, 0.006, 0.001, -0.010, 0.012, -0.003, -0.009, -0.013, -0.008, 0.005, -0.005, 0.002, 0.003, -0.010, 0.009, 0.005, -0.003, -0.012, -0.008, 0.002, 0.009, -0.010, 0.004, 0.005, 0.001, -0.005, -0.012, 0.009, 0.007, 0.012, 0.012, -0.013, 0.006, -0.001, -0.004, -0.006, -0.004, 0.012, 0.013, -0.000, 0.008, 0.008, -0.001, 0.009, 0.008, -0.001, -0.005, -0.010, 0.008, -0.003, -0.002, 0.004, 0.009, -0.000, 0.004, -0.007, -0.003, 0.003, -0.001, 0.011, -0.004, -0.004, -0.005, 0.002, -0.003, -0.000, -0.009, -0.000, 0.010, 0.005, -0.001, -0.005, -0.009, 0.013, 0.003, -0.005, -0.005, 0.002, 0.003, 0.007, 0.001, 0.003, 0.009, 0.008, 0.001, -0.007, -0.004, 0.013, 0.008, -0.001, 0.006, 0.010, 0.009, 0.001, -0.003, 0.007, 0.012, 0.002, 0.013, 0.011, -0.005, 0.001, 0.003, -0.011, -0.002, 0.002, -0.011, 0.011, -0.008, -0.004, 0.000, 0.013, 0.013, 0.013, -0.011, -0.006, -0.000, 0.013, 0.010, 0.012, 0.001, -0.005, 0.003, 0.004, -0.007, 0.005, 0.005, -0.006, 0.011, 0.011, 0.002, -0.002, -0.006, -0.006, -0.010, -0.002, 0.010, 0.012, -0.007, -0.004, -0.006, 0.013, -0.003, 0.011, -0.013, -0.010, -0.007, 0.009, 0.006, 0.001, -0.003, 0.004, -0.003, 0.004, -0.011, -0.005, -0.012, 0.013, -0.000, -0.003, 0.005, 0.006, -0.011, 0.010, -0.004, 0.002, 0.000, -0.008, -0.006, 0.009, 0.002, -0.011, -0.007, 0.003, -0.006, -0.013, 0.006, 0.009, 0.003, -0.006, -0.003, -0.013, -0.009, 0.007, -0.001, -0.007, -0.011, -0.003, 0.009, 0.006, -0.003, -0.006, -0.000, -0.006, 0.011, 0.006, 0.007, 0.012, 0.007, -0.001, -0.012, 0.001, 0.001, -0.005, 0.010, 0.003, -0.010, 0.013, 0.000, 0.005, 0.002, 0.012, 0.003, -0.013, -0.010, 0.008, 0.013, -0.002, 0.008, -0.001, -0.008, -0.011, -0.012, 0.007, -0.011, 0.007, 0.012, -0.004, 0.003, 0.012, 0.001, -0.002, -0.008, -0.001, -0.003, -0.006, -0.008, -0.003, -0.003, 0.002, -0.007, 0.011, 0.011, -0.003, 0.005, -0.006, 0.001, 0.004, -0.007, 0.008, -0.012, 0.000, 0.007, -0.005, 0.012, 0.002, 0.009, -0.013, -0.002, -0.008, 0.007, -0.003, -0.003, -0.009, -0.006, 0.009, -0.002, 0.008, 0.010, 0.013, 0.009, 0.010, 0.012, 0.000, -0.005, 0.005, 0.006, 0.004, 0.002, 0.012, 0.005, 0.012, -0.007, -0.005, 0.005, 0.010, 0.008, -0.005, -0.009, 0.010, -0.008, -0.003, 0.013, -0.009, 0.000, -0.000, 0.004, 0.009, -0.001, -0.002, -0.010, -0.010, 0.007, -0.002, -0.003, 0.012, -0.004, -0.004, -0.000, 0.009, -0.009, 0.013, 0.002, -0.008, -0.007, 0.005, -0.008, -0.002, 0.004, -0.007, -0.006, -0.001, -0.008, 0.006, -0.010, -0.005, 0.009, 0.012, 0.001, -0.004, 0.005, -0.011, -0.002, 0.002, -0.003, -0.003, 0.005, 0.009, -0.009, 0.003, 0.004, -0.010, 0.010, -0.012, 0.011, -0.007, -0.003, 0.001, 0.003, -0.004, 0.003, 0.004, -0.006, 0.010, -0.010, 0.003, 0.010, -0.004, -0.006, -0.002, -0.008, -0.003, 0.001, -0.007, 0.001, -0.006, -0.004, -0.000, -0.003, 0.005, 0.008, 0.007, 0.003, -0.003, -0.012, -0.001, 0.004, -0.004, 0.008, -0.003, 0.009, -0.009, 0.009, 0.013, -0.004, -0.000, 0.010, -0.007, 0.011, 0.003, -0.003, -0.007, -0.002, -0.008, -0.007, 0.005, -0.007, 0.012, 0.006, -0.001, 0.001, 0.001, -0.010, -0.008, -0.010, 0.012, 0.005, -0.002, -0.008, 0.010, -0.004, 0.003, -0.007, -0.009, 0.012, -0.001, 0.002, -0.006, -0.011, 0.009, -0.005, 0.012, -0.012, 0.003, -0.011, -0.009, -0.004, -0.009, 0.002, -0.008, -0.003, 0.003, 0.008, 0.009, 0.006, 0.002, 0.004, -0.013, 0.011, 0.001, 0.012, 0.003, 0.009, -0.006, -0.008, 0.001, 0.003, -0.000, -0.012, -0.005, 0.000, 0.006, 0.002, 0.009, -0.008, -0.000, 0.003, -0.002, 0.003, 0.005, 0.005, -0.008, -0.002, -0.004, -0.012, 0.004, 0.001, -0.008, -0.000, -0.003, 0.000, 0.001, 0.006, -0.005, 0.009, -0.009, -0.009, -0.009, 0.008, -0.006, 0.010, 0.008, 0.010, 0.007, 0.007, 0.005, -0.009, 0.004, 0.002, -0.012, 0.006, -0.009, 0.009, 0.005, 0.003, 0.009, 0.000, -0.009, 0.012, -0.009, 0.007, 0.003, 0.000, 0.012, -0.011, 0.009, 0.006, 0.011, -0.000, -0.004, -0.004, -0.009, 0.005, 0.006, -0.006, 0.006, 0.005, 0.009, -0.004, 0.007, 0.000, 0.013, -0.007, -0.005, -0.007, 0.008, -0.007, -0.006, -0.010, -0.002, -0.005, -0.007, -0.012, -0.007, 0.010, 0.008, 0.009, 0.002, -0.006, 0.002, -0.002, -0.002, 0.007, -0.005, 0.007, 0.010, 0.008, 0.011, -0.001, 0.007, 0.005, -0.005, -0.009, 0.010, -0.001, -0.005, -0.003, 0.003, 0.002, -0.002, 0.007, -0.001, 0.001, 0.010, 0.010, -0.012, -0.006, -0.001, 0.013, -0.003, 0.006, 0.012, -0.013, -0.011, -0.012, 0.000, 0.007, 0.013, -0.003, 0.011, 0.005, 0.006, -0.005, 0.012, -0.003, -0.010, -0.005, 0.006, 0.000, 0.013, 0.010, 0.003, -0.009, 0.001, -0.011, -0.004, 0.001, -0.007, -0.005, 0.001, -0.004, 0.005, 0.004, 0.003, 0.006, 0.011, -0.000, 0.007, -0.009, -0.011, 0.007, 0.005, -0.004, 0.000, -0.011, -0.007, -0.005, -0.008, -0.004, 0.006, 0.005, -0.006, -0.004, -0.004, -0.011, 0.004, 0.003, 0.005, -0.009, -0.002, -0.008, -0.012, 0.007, 0.011, -0.005, 0.004, -0.003, -0.001, -0.003, 0.009, -0.009, -0.009, 0.010, 0.011, 0.000, -0.003, -0.008, 0.006, -0.007, 0.001, 0.008, 0.011, 0.011, 0.004, 0.000, 0.010, -0.005, -0.001, 0.013, 0.002, -0.012, -0.007, -0.011, 0.002, 0.008, 0.005, 0.005, 0.009, -0.007, -0.012, -0.002, 0.005, 0.007, -0.001, 0.005, -0.002, 0.002, 0.005, -0.003, 0.012, 0.013, -0.006, 0.010, 0.003, 0.005, 0.007, 0.012, 0.010, -0.005, 0.002, -0.008, -0.005, 0.002, 0.008, -0.006, -0.007, -0.003, -0.005, -0.009, 0.006, 0.004, 0.008, -0.012, -0.007, -0.008, -0.004, 0.002, 0.005, -0.005, -0.007, -0.010, -0.013, -0.013, -0.007, 0.004, -0.004, -0.004, -0.012, -0.007, 0.003, 0.008, -0.012, -0.001, 0.005, -0.007, 0.006, 0.009, -0.005, 0.005, 0.004, 0.013, -0.011, 0.001, -0.003, 0.006, 0.005, -0.007, -0.006, -0.002, 0.011, -0.000, -0.007, 0.009, 0.002, 0.003, -0.007, -0.008, -0.004, -0.007, -0.011, 0.011, -0.011, -0.012, 0.006, 0.006, -0.013, -0.002, 0.010, 0.011, 0.003, -0.005, -0.009, -0.005, 0.011, 0.000, -0.009, -0.010, 0.006, 0.003, -0.000, 0.007, -0.008, 0.008, 0.003, -0.013, -0.009, 0.004, 0.004, 0.008, -0.011, 0.011, -0.012, 0.007, -0.010, 0.013, -0.000, -0.005, -0.012, 0.007, 0.005, 0.002, 0.001, 0.008, 0.009, 0.002, 0.007, -0.003, -0.003, 0.003, 0.008, 0.006, 0.005, -0.009, -0.007, -0.013, -0.003, -0.010, 0.005, 0.003, -0.005, 0.001, -0.001, 0.008, -0.012, -0.006, 0.010, 0.004, -0.004, 0.013, 0.007, 0.009, -0.000, 0.000, 0.009, 0.002, -0.001, -0.010, -0.000, -0.013, -0.011, 0.011, 0.008, -0.006, -0.013, 0.001, -0.001, 0.007, -0.011, -0.010, -0.005, -0.010, 0.011, -0.007, 0.009, 0.002, -0.010, 0.003, 0.003, -0.007, 0.005, 0.004, 0.008, -0.011, 0.001, -0.004, -0.006, -0.008, -0.005, -0.006, 0.001, -0.004, 0.002, -0.007, 0.008, 0.006, -0.012, 0.003, -0.002, 0.011, 0.013, -0.001, -0.007, 0.003, -0.009, -0.011, -0.002, -0.001, -0.003, -0.003, -0.010, -0.002, 0.003, 0.000, 0.002, -0.011, 0.006, -0.003, -0.010, -0.001, -0.010, 0.008, -0.008, 0.003, -0.000, 0.006, -0.010, 0.012, -0.010, -0.006, 0.001, -0.011, 0.004, -0.010, -0.013, 0.013, -0.001, 0.006, 0.007, -0.004, -0.012, -0.004, -0.007, 0.010, -0.010, -0.011, -0.006, 0.000, -0.012, -0.005, 0.010, 0.011, 0.010, 0.005, -0.004, 0.001, -0.001, 0.006, 0.002, 0.008, 0.002, -0.002, -0.006, 0.010, -0.002, -0.005, -0.003, -0.010, 0.007, 0.012, 0.001, -0.002, 0.002, -0.010, -0.010, 0.007, 0.012, 0.013, 0.001, 0.009, -0.001, -0.006, 0.003, 0.002, 0.005, -0.006, -0.013, 0.013, 0.012, 0.000, -0.003, -0.012, 0.011, -0.008, 0.009, 0.002, -0.011, 0.012, -0.000, 0.002, -0.013, -0.001, 0.004, -0.010, 0.009, 0.005, 0.003, 0.009, -0.003, -0.002, -0.004, 0.012, 0.005, 0.011, -0.005, -0.004, -0.007, 0.004, -0.008, -0.003, -0.003, 0.000, -0.010, 0.011, 0.010, 0.002, 0.004, -0.010, 0.012, 0.012, 0.005, 0.010, -0.009, 0.007, 0.001, 0.008, -0.011, 0.004, 0.007, 0.012, 0.008, -0.013, -0.005, -0.006, 0.000, -0.004, 0.011, 0.000, -0.000, -0.005, 0.007, -0.007, -0.013, -0.011, 0.001, -0.002, 0.010, -0.006, -0.010, -0.005, -0.008, -0.004, -0.004, 0.001, 0.011, -0.009, -0.006, 0.002, 0.001, -0.010, -0.003, -0.011, 0.007, 0.008, 0.006, -0.002, 0.002, -0.011, -0.003, -0.010, -0.008, -0.005, -0.012, 0.010, -0.012, 0.002, 0.002, -0.003, 0.011, -0.004, -0.011, -0.000, -0.011, -0.011, 0.010, 0.009, 0.012, -0.003, -0.001, -0.011, -0.002, -0.009, 0.012, -0.003, -0.005, -0.005, -0.005, 0.009, -0.007, 0.008, -0.001, -0.001, 0.009, -0.006, 0.008, 0.013, 0.010, -0.009, -0.012, -0.002, -0.012, 0.010, -0.009, -0.000, -0.007, -0.012, 0.010, -0.005, -0.003, 0.001, 0.002, 0.004, 0.004, 0.011, 0.006, -0.001, 0.005, -0.003, -0.010, 0.011, -0.012, 0.004, 0.004, 0.005, -0.008, -0.007, -0.003, -0.005, -0.013, -0.000, 0.008, -0.013, 0.001, -0.011, -0.009, 0.003, -0.010, -0.012, 0.009, 0.001, 0.001, 0.013, -0.006, -0.001, 0.006, -0.006, -0.004, 0.006, 0.008, -0.000, 0.005, -0.001, -0.002, -0.000, 0.005, 0.007, -0.003, -0.007, -0.007, -0.006, -0.012, 0.006, 0.002, -0.006, -0.000, -0.012, -0.008, -0.013, -0.013, 0.012, 0.003, 0.006, 0.001, -0.012, -0.006, -0.002, 0.001, -0.013, 0.006, -0.000, 0.009, 0.013, 0.006, 0.012, 0.002, -0.008, 0.001, -0.005, 0.012, -0.002, -0.003, -0.012, -0.011, 0.011, 0.003, -0.008, -0.000, -0.012, 0.001, 0.007, -0.008, 0.005, -0.011, 0.005, -0.012, 0.003, 0.009, 0.012, 0.012, 0.002, 0.004, -0.001, -0.001, 0.004, -0.008, -0.011, 0.011, 0.009, 0.000, 0.009, -0.008, 0.002, 0.003, -0.004, 0.013, 0.011, 0.001, 0.013, -0.007, -0.003, 0.009, 0.002, -0.006, 0.002, 0.010, 0.013, -0.012, 0.001, -0.011, 0.004, -0.005, 0.004, -0.011, -0.003, 0.011, 0.007, 0.009, -0.003, 0.006, -0.012, -0.006, 0.006, -0.008, -0.003, -0.010, 0.000, 0.006, -0.003, -0.010, 0.006, 0.007, 0.008, 0.007, -0.010, 0.012, -0.000, -0.013, 0.003, 0.004, -0.005, -0.006, 0.008, -0.001, -0.006, 0.013, -0.009, 0.009, -0.012, 0.002, 0.004, -0.000, -0.007, -0.012, -0.000, -0.002, 0.010, -0.006, -0.008, 0.009, -0.008, -0.002, -0.001, -0.012, 0.007, -0.010, -0.000, 0.007, -0.004, 0.013, 0.003, 0.001, 0.012, 0.006, -0.000, -0.008, -0.007, -0.013, 0.011, -0.013, -0.004, 0.008, 0.006, 0.000, 0.010, -0.007, 0.003, 0.004, -0.012, -0.007, -0.009, 0.010, 0.004, -0.006, 0.006, 0.001, 0.004, 0.006, -0.004, -0.003, 0.003, -0.002, -0.004, 0.006, 0.004, 0.000, 0.003, -0.007, -0.005, 0.013, -0.001, 0.009, -0.010, 0.010, -0.001, -0.011, -0.000, 0.010, -0.010, -0.007, -0.010, -0.011, 0.012, -0.012, -0.007, 0.001, 0.007, -0.008, 0.009, 0.007, 0.001, -0.011, 0.008, -0.008, -0.008, -0.005, -0.010, -0.005, 0.005, -0.005, 0.002, 0.008, 0.010, -0.013, -0.002, 0.006, -0.001, 0.009, 0.002, -0.009, 0.000, 0.008, 0.013, -0.010, -0.012, 0.001, -0.001, 0.002, -0.005, -0.000, 0.005, -0.006, 0.011, -0.010, -0.000, 0.003, -0.009, -0.004, 0.009, 0.011, -0.007, -0.007, -0.005, -0.012, 0.012, 0.012, -0.000, 0.010, 0.001, -0.006, 0.004, 0.012, -0.006, -0.006, -0.004, -0.008, -0.012, 0.002, 0.010, 0.012, 0.001, 0.010, 0.004, -0.006, -0.011, 0.006, 0.003, -0.011, -0.000, -0.009, 0.007, -0.007, -0.007, 0.011, -0.004, -0.005, 0.005, 0.002, 0.013, -0.010, -0.006, -0.010, -0.003, 0.007, 0.006, -0.007, 0.003, -0.007, 0.012, 0.003, -0.003, 0.012, -0.013, -0.003, 0.010, -0.002, 0.002, 0.009, 0.005, 0.005, 0.000, -0.009, -0.012, 0.009, 0.003, -0.011, -0.010, -0.002, 0.008, -0.001, -0.006, -0.004, 0.011, -0.005, -0.003, 0.005, 0.003, 0.006, -0.008, 0.005, -0.011, 0.004, 0.010, -0.003, -0.012, 0.012, -0.011, 0.008, 0.006, -0.004, 0.004, 0.000, -0.001, 0.000, 0.006, -0.009, 0.003, 0.004, 0.013, -0.006, 0.008, 0.008, 0.004, -0.007, 0.012, -0.003, -0.005, -0.009, -0.005, -0.002, 0.004, 0.011, -0.000, -0.012, -0.010, 0.010, 0.009, 0.000, -0.009, -0.009, 0.011, -0.005, -0.002, -0.010, 0.012, -0.007, -0.008, 0.008, -0.012, -0.003, -0.006, -0.001, 0.002, -0.006, 0.007, 0.000, -0.007, 0.010, -0.012, 0.011, -0.003, -0.012, -0.009, 0.010, -0.004, 0.007, -0.002, 0.010, 0.007, -0.005, 0.006, -0.003, -0.005, -0.002, -0.012, -0.009, -0.003, 0.006, 0.003, 0.003, 0.005, 0.007, -0.000, 0.003, -0.003, 0.008, 0.007, 0.010, 0.006, 0.001, -0.008, 0.005, 0.005, -0.004, -0.005, 0.003, 0.008, 0.013, 0.001, -0.006, 0.012, -0.001, 0.001, 0.008, -0.002, 0.009, -0.001, 0.009, -0.002, -0.003, -0.009, -0.011, 0.012, 0.009, 0.013, 0.007, 0.002, -0.005, -0.005, -0.003, 0.000, 0.006, -0.001, -0.008, -0.005, 0.007, 0.002, -0.008, -0.005, -0.001, 0.002, -0.007, -0.010, 0.001, -0.008, -0.006, 0.008, -0.001, -0.002, -0.004, -0.005, 0.010, -0.012, -0.009, 0.008, -0.003, 0.004, 0.002, 0.012, -0.008, 0.004, -0.012, 0.003, 0.013, 0.009, 0.003, -0.005, 0.002, -0.001, -0.012, 0.006, -0.000, 0.009, -0.002, -0.007, 0.006, 0.009, 0.004, 0.000, -0.007, -0.004, 0.008, 0.002, 0.006, -0.011, 0.003, 0.007, 0.003, 0.001, -0.010, -0.007, 0.006, -0.012, -0.001, -0.006, -0.010, 0.005, -0.006, 0.011, 0.007, 0.010, -0.010, 0.009, 0.001, -0.001, -0.010, 0.006, -0.008, -0.001, 0.006, 0.004, 0.005, 0.006, 0.012, 0.003, 0.006, -0.012, 0.007, -0.001, 0.000, -0.003, -0.006, -0.001, 0.010, -0.003, 0.006, -0.006, 0.006, -0.006, 0.001, 0.011, 0.007, -0.000, -0.001, -0.008, -0.012, -0.002, -0.001, 0.006, -0.002, -0.004, -0.003, 0.005, 0.003, -0.008, 0.007, 0.001, -0.006, -0.007, -0.007, 0.007, -0.008, 0.001, -0.008, -0.002, -0.011, 0.007, -0.008, -0.007, -0.004, 0.009, -0.005, 0.006, 0.003, -0.003, -0.001, -0.002, 0.007, 0.002, -0.001, -0.001, -0.012, 0.008, -0.006, 0.003, 0.001, -0.001, 0.003, 0.009, 0.003, -0.001, 0.010, 0.002, 0.007, 0.010, -0.007, 0.011, 0.011, 0.006, -0.003, 0.008, -0.011, -0.009, -0.005, 0.013, 0.001, 0.010, -0.011, -0.007, 0.000, 0.013, 0.005, 0.002, -0.008, -0.001, -0.009, 0.004, 0.004, 0.011, 0.002, 0.010, 0.001, 0.005, 0.002, -0.007, 0.011, 0.006, -0.002, -0.012, -0.008, -0.012, -0.003, -0.007, -0.001, 0.007, 0.013, -0.011, -0.004, 0.006, -0.006, -0.003, -0.009, -0.001, -0.012, -0.006, -0.007, -0.013, -0.006, -0.012, -0.010, -0.001, 0.000, 0.008, -0.007, -0.012, -0.008, 0.005, 0.004, 0.011, 0.007, -0.003, -0.013, -0.012, -0.004, 0.003, 0.013, 0.008, -0.009, 0.004, -0.011, 0.002, 0.012, 0.003, -0.011, -0.012, 0.005, 0.003, -0.005, 0.003, 0.009, -0.010, -0.009, -0.005, 0.004, 0.003, 0.007, 0.004, 0.003, 0.008, -0.002, -0.008, -0.007, -0.008, -0.006, -0.003, 0.000, -0.001, 0.009, -0.003, 0.006, 0.008, 0.010, 0.011, 0.013, 0.004, -0.008, -0.012, -0.007, 0.007, -0.012, 0.003, 0.005, -0.010, 0.011, 0.002, -0.013, 0.008, 0.012, 0.008, -0.006, 0.003, -0.011, 0.002, -0.009, -0.005, -0.002, 0.011, -0.004, 0.007, -0.011, -0.003, 0.002, -0.007, -0.006, 0.005, -0.005, 0.009, 0.012, 0.011, 0.004, -0.001, 0.009, -0.002, 0.006, 0.007, -0.003, -0.000, 0.010, -0.007, -0.010, -0.004, -0.011, -0.007, 0.011, 0.004, -0.006, -0.009, 0.001, -0.001, 0.010, -0.003, 0.011, 0.011, -0.009, 0.005, 0.006, 0.006, -0.002, 0.002, -0.011, -0.002, -0.003, -0.007, 0.009, 0.004, 0.011, -0.007, -0.004, 0.010, 0.010, 0.007, 0.002, -0.007, -0.001, -0.010, 0.005, -0.008, -0.004, 0.003, -0.008, 0.009, -0.003, -0.002, -0.006, -0.013, -0.006, 0.003, -0.007, -0.009, 0.003, 0.000, -0.002, -0.003, 0.005, 0.013, -0.010, -0.009, 0.007, -0.005, 0.009, -0.012, -0.011, 0.004, -0.009, 0.005, 0.004, -0.009, 0.005, -0.011, 0.001, -0.013, 0.005, -0.006, -0.013, -0.011, 0.013, -0.008, -0.006, 0.001, -0.006, -0.012, 0.012, -0.004, -0.001, -0.010, -0.006, 0.005, -0.002, -0.011, -0.004, 0.005, 0.001, 0.006, -0.004, -0.005, -0.005, -0.008, 0.010, -0.000, -0.003, -0.000, -0.000, -0.003, -0.006, 0.007, 0.004, 0.004, -0.008, 0.001, 0.005, 0.002, -0.001, -0.008, -0.007, 0.002, 0.008, 0.002, -0.011, 0.005, -0.009, 0.004, -0.005, 0.008, -0.004, 0.005, -0.013, 0.001, 0.010, -0.005, 0.003, -0.011, -0.007, -0.009, 0.010, 0.012, 0.013, 0.002, 0.007, -0.004, 0.006, 0.011, 0.003, 0.005, 0.002, 0.003, 0.010, 0.012, 0.003, -0.004, 0.005, -0.008, 0.001, 0.010, -0.012, 0.001, 0.013, -0.008, 0.011, -0.012, -0.007, -0.002, 0.008, 0.002, 0.005, 0.004, 0.004, -0.006, -0.005, 0.009, -0.002, 0.006, 0.005, 0.003, 0.004, -0.007, -0.005, 0.002, 0.013, -0.005, 0.008, -0.004, -0.008, -0.009, -0.007, 0.011, -0.006, -0.011, -0.012, -0.010, 0.009, 0.012, 0.001, -0.008, -0.010, 0.003, 0.007, -0.001, 0.009, 0.001, 0.001, -0.009, -0.001, 0.002, 0.013, -0.009, 0.001, 0.000, -0.010, -0.002, -0.012, -0.002, -0.003, -0.004, -0.008, 0.000, 0.009, -0.003, -0.008, -0.005, 0.002, -0.004, -0.008, 0.012, -0.005, 0.008, 0.001, 0.002, -0.006, 0.004, 0.011, -0.000, 0.005, -0.006, -0.006, 0.012, 0.001, -0.002, -0.010, -0.007, -0.002, -0.002, 0.009, 0.001, -0.008, 0.006, 0.007, 0.009, -0.007, 0.004, 0.005, 0.004, 0.005, -0.004, 0.009, -0.005, -0.007, -0.009, 0.003, -0.003, -0.006, 0.002, 0.000, 0.001, -0.006, 0.006, -0.011, -0.009, -0.011, -0.010, -0.000, 0.008, -0.013, -0.009, 0.012, 0.006, -0.004, 0.008, -0.003, -0.013, 0.009, -0.001, -0.006, 0.004, 0.004, -0.011, -0.011, 0.001, -0.004, 0.010, 0.013, -0.012, -0.001, 0.008, -0.007, -0.012, -0.006, 0.004, 0.007, 0.004, -0.004, -0.012, -0.012, -0.012, -0.012, 0.007, -0.011, 0.001, 0.002, 0.005, -0.013, 0.010, 0.004, -0.004, 0.006, 0.013, -0.012, 0.013, -0.002, 0.011, -0.007, -0.010, 0.007, -0.005, -0.011, -0.010, 0.012, -0.006, 0.011, 0.002, -0.012, 0.002, 0.013, -0.009, -0.007, 0.013, -0.002, -0.011, 0.001, -0.002, 0.011, -0.003, 0.003, -0.013, 0.000, -0.002, -0.006, 0.012, -0.005, 0.013, 0.009, 0.006, -0.009, 0.008, -0.011, 0.000, -0.005, -0.006, 0.000, -0.006, 0.009, 0.003, -0.008, -0.002, 0.005, 0.001, 0.007, 0.010, -0.001, -0.007, 0.006, 0.012, -0.009, 0.003, -0.008, 0.001, 0.001, 0.008, -0.010, -0.011, -0.000, 0.005, 0.004, 0.013, -0.002, -0.001, -0.008, 0.004, -0.005, 0.012, 0.000, 0.008, 0.006, -0.005, -0.001, 0.005, -0.010, -0.008, -0.005, 0.007, 0.007, 0.013, 0.002, 0.007, -0.005, 0.012, -0.011, -0.007, -0.010, 0.010, -0.005, -0.005, 0.012, -0.005, 0.004, -0.005, 0.001, -0.000, 0.010, -0.006, -0.010, 0.013, -0.002, 0.009, -0.000, -0.006, -0.005, -0.009, -0.001, 0.005, 0.013, -0.004, 0.010, 0.005, -0.001, 0.011, -0.007, 0.007, 0.006, -0.001, -0.003, 0.004, -0.009, 0.000, -0.003, -0.013, 0.013, 0.003, 0.008, 0.001, -0.000, -0.011, 0.011, -0.002, -0.007, 0.009, 0.009, 0.006, -0.008, -0.009, -0.010, -0.007, -0.002, 0.002, 0.012, 0.009, -0.010, -0.003, 0.006, -0.009, -0.006, 0.001, 0.001, 0.005, 0.012, 0.008, -0.005, -0.001, -0.006, -0.004, 0.003, -0.001, 0.005, -0.002, 0.013, -0.001, -0.008, 0.003, -0.009, -0.001, 0.001, -0.001, 0.002, 0.011, -0.004, -0.000, -0.004, -0.009, 0.013, -0.013, -0.003, -0.001, -0.012, 0.009, -0.010, 0.005, 0.001, 0.013, -0.001, 0.004, -0.005, -0.005, -0.008, -0.012, -0.001, 0.002, 0.004, -0.005, -0.008, 0.005, -0.006, -0.010, -0.002, -0.011, -0.001, 0.003, 0.006, 0.007, 0.001, -0.001, -0.006, -0.009, 0.013, -0.004, 0.004, -0.001, -0.007, -0.005, 0.001, 0.008, -0.012, 0.008, -0.000, 0.006, 0.006, -0.007, -0.002, -0.006, 0.001, 0.005, 0.007, -0.004, -0.005, 0.005, 0.011, 0.000, 0.009, 0.007, -0.007, -0.006, -0.004, 0.007, -0.009, 0.012, -0.007, -0.011, -0.002, 0.003, 0.001, -0.011, -0.010, 0.012, 0.013, -0.005, -0.005, -0.008, 0.001, -0.012, 0.004, 0.005, 0.009, -0.012, -0.013, -0.002, 0.011, -0.002, 0.003, -0.007, 0.003, 0.004, 0.001, 0.006, -0.001, -0.009, -0.010, 0.008, -0.007, -0.013, 0.009, 0.005, 0.003, 0.009, 0.006, -0.012, 0.004, 0.010, -0.002, -0.011, 0.004, 0.009, -0.009, 0.004, 0.000, 0.008, -0.010, -0.002, 0.007, 0.006, -0.008, 0.004, 0.005, -0.001, 0.006, -0.007, -0.005, -0.009, 0.004, 0.010, -0.005, -0.004, -0.002, -0.003, -0.007, 0.007, 0.012, 0.013, 0.002, -0.002, -0.005, 0.006, 0.008, 0.001, -0.002, -0.011, 0.013, 0.001, 0.005, -0.001, 0.004, 0.002, -0.009, 0.002, 0.006, -0.006, -0.002, 0.006, -0.006, 0.008, -0.012, 0.004, 0.009, -0.005, -0.004, 0.009, 0.000, -0.003, -0.002, -0.010, 0.010, -0.011, -0.005, -0.001, -0.005, -0.010, -0.005, -0.012, 0.010, -0.003, -0.001, 0.011, 0.012, 0.006, -0.006, 0.013, 0.004, -0.008, 0.000, 0.002, 0.012, -0.007, -0.001, 0.013, 0.006, 0.007, -0.007, -0.005, -0.007, -0.004, 0.008, -0.002, -0.004, 0.005, -0.013, -0.011, 0.007, -0.003, -0.011, -0.000, 0.004, -0.012, -0.010, 0.011, -0.004, 0.011, 0.010, 0.013, -0.000, 0.003, -0.010, 0.002, 0.011, -0.002, 0.012, -0.002, -0.011, -0.001, 0.013, 0.002, -0.001, -0.002, -0.009, 0.005, 0.006, 0.004, 0.006, 0.003, -0.002, 0.010, 0.009, 0.002, 0.009, -0.009, -0.003, -0.013, -0.004, 0.001, 0.002, 0.012, -0.010, 0.007, 0.006, -0.009, 0.003, 0.004, 0.008, 0.013, 0.009, 0.001, -0.005, -0.010, -0.005, -0.007, 0.009, -0.007, 0.012, 0.004, -0.001, -0.012, -0.009, 0.008, 0.000, -0.002, 0.001, 0.013, 0.007, 0.005, -0.013, 0.000, 0.009, -0.001, -0.011, 0.012, 0.008, -0.001, 0.011, 0.009, 0.002, -0.001, 0.006, -0.012, -0.011, 0.007, 0.011, -0.009, -0.005, 0.003, 0.012, 0.001, -0.005, 0.009, -0.001, 0.009, 0.000, 0.000, -0.003, 0.000, -0.004, -0.008, -0.008, -0.006, 0.001, 0.003, 0.013, -0.001, -0.002, 0.002, -0.013, 0.006, 0.005, -0.002, 0.010, -0.003, 0.008, 0.007, 0.011, -0.011, -0.013, 0.011, -0.007, -0.011, 0.000, 0.012, 0.005, 0.002, -0.001, -0.007, -0.005, -0.004, 0.013, -0.006, -0.000, 0.002, 0.002, 0.003, 0.011, 0.013, 0.008, 0.009, 0.003, 0.007, 0.001, -0.006, -0.010, 0.011, 0.011, 0.004, -0.003, -0.011, -0.007, -0.005, -0.010, -0.007, -0.002, 0.002, -0.012, 0.010, 0.001, 0.005, 0.013, 0.010, 0.002, 0.006, 0.002, 0.007, 0.001, 0.003, -0.007, 0.006, 0.010, -0.002, -0.009, -0.005, -0.003, 0.004, 0.007, -0.012, 0.002, -0.007, -0.007, 0.007, 0.011, 0.010, -0.002, -0.009, -0.010, 0.007, 0.013, 0.007, -0.007, 0.006, -0.009, -0.012, 0.002, -0.004, -0.007, -0.001, -0.008, 0.005, -0.005, -0.003, -0.011, -0.001, -0.008, 0.001, 0.002, -0.008, -0.006, -0.007, -0.006, -0.005, -0.007, 0.009, -0.001, -0.005, -0.006, 0.008, 0.005, -0.012, 0.005, -0.013, 0.007, -0.002, -0.004, -0.012, 0.002, -0.006, -0.010, 0.005, -0.012, 0.007, -0.005, -0.002, 0.013, 0.002, 0.001, 0.000, -0.002, -0.009, -0.010, 0.007, 0.000, 0.004, 0.009, 0.002, -0.008, -0.007, 0.008, -0.010, 0.004, -0.013, -0.011, 0.009, 0.007, 0.007, -0.003, 0.004, 0.002, 0.009, -0.011, -0.010, 0.012, -0.013, 0.006, 0.009, 0.003, 0.003, 0.012, 0.010, -0.008, 0.003, 0.009, -0.000, -0.012, -0.008, 0.006, 0.008, -0.007, 0.007, -0.013, -0.003, 0.006, -0.001, -0.006, 0.012, 0.013, 0.008, -0.006, 0.012, 0.006, 0.003, 0.004, -0.001, 0.008, 0.005, -0.006, 0.011, -0.011, -0.005, 0.009, -0.004, 0.011, -0.007, -0.004, 0.001, -0.009, -0.009, 0.008, -0.003, 0.001, 0.010, 0.007, 0.006, 0.008, -0.009, 0.012, -0.013, -0.008, -0.005, 0.010, -0.010, -0.008, 0.002, -0.001, 0.008, -0.008, -0.009, -0.007, -0.001, -0.005, -0.005, -0.009, -0.007, -0.006, -0.003, -0.006, -0.003, -0.003, -0.002, 0.002, -0.003, -0.003, 0.011, 0.002, 0.001, -0.005, 0.013, -0.013, -0.000, -0.008, -0.008, -0.003, 0.000, -0.010, 0.011, 0.006, 0.009, 0.010, 0.010, 0.001, -0.000, -0.003, -0.009, -0.001, -0.005, 0.003, 0.001, 0.004, 0.009, 0.009, 0.006, -0.008, -0.006, 0.004, 0.012, -0.000, -0.003, -0.006, -0.010, -0.007, 0.005, -0.007, -0.006, 0.012, -0.002, -0.011, 0.011, -0.012, 0.005, -0.012, -0.011, 0.013, -0.003, -0.004, 0.010, 0.009, -0.005, -0.000, -0.007, -0.013, 0.008, 0.001, 0.007, -0.003, -0.012, 0.004, 0.006, -0.010, 0.011, 0.008, -0.013, 0.012, 0.009, 0.004, 0.011, -0.001, -0.003, -0.013, 0.001, 0.003, -0.013, -0.010, -0.007, -0.001, 0.001, -0.009, 0.010, 0.007, 0.003, 0.007, 0.010, -0.006, 0.010, 0.002, 0.007, 0.004, 0.004, -0.000, 0.004, -0.004, -0.009, -0.011, 0.001, -0.006, 0.012, -0.003, 0.006, -0.005, 0.003, -0.005, -0.002, 0.001, -0.011, -0.011, -0.000, -0.002, 0.010, -0.002, -0.009, 0.005, 0.009, -0.005, 0.012, -0.009, -0.004, -0.005, -0.004, 0.005, -0.005, 0.003, 0.010, 0.000, -0.009, 0.003, 0.002, 0.004, -0.004, 0.012, 0.004, 0.002, 0.000, -0.003, -0.001, -0.003, -0.000, -0.002, -0.010, 0.013, 0.003, -0.004, -0.010, -0.002, -0.013, -0.006, -0.009, -0.011, -0.012, 0.005, -0.007, -0.008, 0.011, -0.003, -0.004, 0.003, 0.010, -0.012, -0.007, -0.007, 0.008, 0.010, 0.007, 0.009, 0.010, -0.002, -0.001, -0.002, -0.011, -0.012, -0.005, -0.010, 0.012, -0.003, -0.004, 0.001, 0.007, -0.002, -0.009, -0.000, 0.012, 0.000, 0.001, -0.005, -0.004, -0.002, 0.013, 0.003, -0.000, -0.000, 0.013, -0.005, 0.000, -0.010, -0.002, -0.009, 0.005, 0.001, 0.009, -0.012, -0.009, 0.013, -0.013, 0.002, 0.010, 0.012, 0.008, -0.001, -0.005, -0.001, 0.012, -0.008, 0.001, 0.013, 0.005, 0.005, -0.002, -0.007, -0.004, -0.002, -0.010, -0.007, 0.002, 0.011, -0.013, 0.013, -0.013, -0.011, -0.005, 0.006, -0.005, -0.006, -0.003, -0.012, 0.011, 0.001, -0.000, 0.011, -0.011, 0.012, -0.004, -0.010, 0.006, -0.000, -0.001, 0.012, 0.010, -0.002, -0.004, -0.010, 0.006, 0.008, 0.011, -0.005, -0.009, -0.012, -0.004, 0.005, -0.003, -0.003, 0.002, -0.011, 0.005, -0.006, -0.012, -0.001, -0.003, -0.010, 0.005, -0.003, -0.008, -0.003, 0.008, -0.009, -0.006, -0.009, -0.006, 0.001, -0.003, 0.011, -0.013, 0.002, 0.001, 0.012, -0.002, -0.004, 0.002, -0.003, -0.004, -0.012, 0.012, 0.010, -0.010, -0.004, 0.003, -0.008, 0.005, 0.003, 0.003, 0.000, -0.008, -0.004, 0.012, 0.003, -0.009, -0.008, -0.000, -0.003, -0.004, -0.001, 0.002, 0.003, 0.008, 0.012, 0.012, -0.003, -0.011, -0.004, 0.010, -0.009, -0.002, -0.006, -0.007, 0.010, -0.003, 0.002, 0.010, 0.008, -0.010, -0.004, -0.002, -0.006, 0.004, -0.005, 0.003, -0.003, -0.013, -0.000, -0.012, 0.005, 0.006, 0.008, 0.001, -0.004, -0.012, -0.006, 0.012, -0.006, 0.002
  }, 
  {
    0.014, -0.009, -0.001, -0.011, 0.013, -0.010, 0.004, 0.011, -0.010, -0.002, -0.004, -0.012, 0.010, -0.007, -0.001, 0.006, -0.006, 0.001, 0.008, -0.006, 0.013, 0.002, 0.013, -0.001, -0.007, 0.009, -0.010, -0.010, 0.006, 0.000, -0.001, 0.011, 0.008, -0.011, 0.011, 0.007, -0.001, 0.006, 0.003, -0.008, -0.006, 0.003, 0.007, -0.008, -0.009, -0.007, -0.010, 0.013, 0.014, -0.005, 0.009, 0.001, -0.012, 0.012, -0.003, -0.003, -0.007, -0.006, -0.010, -0.004, 0.008, -0.010, -0.006, 0.001, 0.007, 0.012, 0.001, 0.004, 0.006, 0.011, 0.010, -0.007, 0.012, -0.007, -0.000, 0.011, -0.002, 0.008, -0.008, 0.011, 0.014, 0.003, 0.013, -0.003, 0.011, 0.004, -0.003, 0.008, 0.012, -0.001, 0.012, -0.009, 0.005, -0.003, -0.012, 0.007, 0.000, -0.001, -0.005, 0.005, 0.004, 0.010, -0.007, 0.014, 0.008, -0.007, -0.004, -0.008, 0.013, 0.012, 0.005, 0.011, 0.003, 0.002, 0.006, 0.010, 0.013, 0.001, 0.003, 0.000, -0.002, 0.002, -0.011, 0.009, -0.009, 0.011, -0.004, 0.000, 0.012, 0.001, -0.000, 0.007, -0.011, 0.003, 0.009, -0.008, -0.011, -0.010, 0.007, -0.001, -0.004, -0.009, 0.011, 0.014, -0.009, 0.006, -0.007, -0.002, -0.003, -0.011, 0.010, 0.003, -0.006, -0.003, 0.000, -0.002, 0.000, -0.005, -0.001, 0.002, 0.000, 0.008, -0.004, 0.011, -0.004, 0.003, 0.002, 0.010, -0.012, 0.007, -0.005, 0.012, 0.012, 0.003, 0.010, 0.006, 0.013, -0.003, -0.001, 0.010, -0.001, 0.012, 0.013, 0.001, -0.008, 0.011, 0.001, 0.007, -0.008, 0.008, 0.012, -0.004, 0.014, 0.007, 0.007, 0.015, 0.001, -0.007, 0.007, 0.008, 0.012, 0.007, 0.001, 0.009, 0.006, 0.001, 0.012, 0.009, -0.002, 0.014, 0.011, -0.007, -0.002, 0.010, -0.001, 0.008, -0.007, 0.006, -0.005, 0.010, 0.009, -0.003, 0.009, 0.012, 0.006, 0.009, -0.008, -0.008, -0.004, 0.007, -0.005, 0.004, 0.001, -0.002, 0.001, 0.014, 0.012, -0.011, -0.004, -0.009, 0.006, -0.001, 0.007, 0.008, -0.009, 0.004, -0.005, 0.010, -0.008, 0.004, -0.010, 0.008, -0.004, -0.004, 0.013, 0.003, -0.004, -0.005, -0.004, 0.002, -0.009, -0.011, -0.011, 0.006, -0.006, 0.009, 0.002, 0.002, 0.002, -0.012, -0.003, 0.014, 0.005, -0.003, -0.002, 0.011, 0.007, -0.010, -0.002, -0.009, 0.002, -0.011, 0.011, 0.003, 0.006, -0.010, 0.004, -0.000, 0.009, -0.001, -0.008, 0.001, -0.002, 0.004, 0.006, -0.001, 0.009, 0.003, 0.012, -0.005, -0.001, 0.011, -0.002, 0.013, -0.011, 0.013, -0.010, 0.012, 0.006, 0.010, 0.014, 0.015, 0.005, 0.014, -0.007, -0.009, 0.002, 0.009, -0.008, 0.005, 0.009, -0.011, 0.007, 0.014, 0.007, -0.003, 0.003, -0.009, -0.002, -0.012, -0.006, -0.002, -0.004, 0.010, -0.004, 0.001, -0.003, 0.008, -0.011, -0.002, 0.001, 0.010, -0.010, 0.001, -0.008, 0.005, -0.001, 0.006, 0.004, -0.007, 0.008, 0.001, 0.013, -0.001, -0.008, 0.003, 0.014, 0.009, -0.012, -0.008, -0.002, 0.011, -0.011, 0.011, -0.005, 0.005, 0.004, -0.009, 0.006, 0.002, 0.012, 0.012, -0.009, -0.010, 0.001, 0.012, -0.001, 0.013, -0.004, -0.001, 0.004, -0.013, 0.001, -0.010, -0.009, 0.012, 0.002, 0.013, -0.008, -0.010, 0.007, 0.006, 0.015, -0.009, -0.007, 0.012, 0.008, 0.009, -0.012, 0.007, 0.008, -0.001, -0.006, -0.009, -0.002, -0.006, 0.009, 0.000, -0.004, 0.013, -0.012, 0.008, -0.004, 0.008, -0.011, 0.010, -0.010, 0.008, 0.010, -0.000, -0.004, -0.010, 0.004, -0.010, -0.006, -0.009, -0.009, -0.001, 0.014, 0.008, 0.004, -0.010, 0.013, -0.006, -0.004, 0.000, -0.002, 0.010, 0.003, -0.007, -0.001, -0.008, -0.012, 0.009, -0.006, -0.002, -0.012, 0.006, 0.000, 0.011, -0.011, -0.011, -0.007, 0.009, 0.001, -0.004, -0.013, -0.001, 0.007, 0.002, -0.003, -0.008, 0.008, -0.004, -0.004, -0.001, 0.011, -0.003, 0.005, -0.007, 0.007, -0.009, 0.012, 0.005, -0.002, -0.011, -0.006, 0.005, -0.009, -0.003, -0.013, -0.003, -0.009, 0.002, 0.012, 0.006, 0.002, 0.007, -0.012, -0.010, -0.011, -0.008, 0.008, 0.012, -0.010, 0.004, 0.004, -0.003, 0.005, 0.011, 0.001, 0.011, -0.000, 0.002, -0.002, -0.003, 0.012, -0.003, 0.010, -0.004, 0.001, 0.002, -0.005, 0.002, -0.001, 0.010, 0.003, 0.006, 0.003, 0.004, 0.007, 0.001, -0.002, 0.005, -0.013, 0.008, 0.003, -0.006, 0.000, -0.009, 0.002, -0.002, 0.009, -0.009, -0.004, 0.005, -0.002, 0.007, -0.003, -0.007, -0.007, -0.003, -0.008, 0.005, -0.007, -0.006, 0.011, -0.004, 0.014, 0.007, -0.007, -0.011, -0.006, 0.009, 0.002, -0.005, -0.010, -0.013, -0.004, 0.001, -0.001, 0.008, -0.002, -0.003, -0.013, -0.011, 0.007, -0.003, -0.008, -0.010, -0.007, -0.008, -0.007, 0.004, 0.005, 0.009, 0.003, -0.008, 0.006, 0.007, -0.008, -0.002, 0.001, 0.012, 0.012, -0.002, 0.015, -0.001, 0.013, 0.011, 0.013, -0.011, 0.006, 0.006, 0.009, 0.000, -0.002, 0.006, -0.002, -0.009, -0.012, 0.012, 0.001, -0.006, 0.013, 0.007, 0.002, 0.003, -0.006, -0.009, -0.005, -0.001, 0.002, 0.000, 0.008, -0.007, 0.011, 0.002, -0.010, 0.001, 0.009, -0.010, -0.003, -0.010, 0.006, 0.010, 0.008, -0.006, 0.001, -0.009, -0.009, 0.006, 0.006, -0.004, -0.007, -0.000, 0.011, -0.007, 0.010, -0.000, 0.012, 0.006, 0.011, -0.011, -0.008, 0.005, -0.005, -0.012, 0.009, 0.010, 0.003, -0.013, 0.011, -0.003, -0.001, -0.004, -0.000, 0.001, -0.004, 0.006, -0.002, 0.005, 0.006, 0.001, 0.001, 0.007, -0.010, -0.003, 0.003, -0.009, -0.004, -0.004, -0.004, -0.004, 0.005, 0.001, -0.010, 0.003, 0.006, -0.001, 0.006, 0.008, -0.000, 0.006, -0.004, 0.004, -0.013, -0.012, -0.006, -0.013, 0.009, -0.012, -0.013, -0.001, 0.006, -0.013, 0.005, -0.002, 0.013, -0.012, -0.006, -0.010, 0.002, 0.001, 0.013, 0.000, -0.003, -0.001, -0.002, -0.001, -0.006, 0.005, 0.007, -0.010, 0.013, 0.007, -0.011, -0.005, -0.010, 0.006, 0.000, -0.007, -0.009, 0.002, -0.006, -0.003, -0.008, 0.001, -0.011, -0.009, 0.007, 0.006, -0.001, 0.008, 0.002, -0.004, -0.005, 0.010, 0.006, -0.010, 0.010, -0.007, -0.003, -0.002, 0.000, -0.004, -0.010, -0.007, 0.007, 0.005, -0.011, -0.008, -0.012, 0.004, -0.001, -0.009, -0.007, -0.006, -0.007, 0.002, -0.008, 0.009, 0.007, 0.012, -0.008, 0.006, -0.004, 0.000, -0.010, -0.002, -0.001, -0.003, -0.004, 0.005, -0.009, 0.009, 0.003, -0.005, 0.001, 0.004, 0.003, 0.007, 0.012, -0.004, 0.012, 0.001, -0.011, -0.007, -0.001, 0.003, 0.005, 0.003, 0.005, 0.002, -0.010, 0.009, 0.002, 0.007, -0.000, 0.013, -0.008, -0.012, -0.003, -0.002, 0.013, 0.013, 0.013, 0.010, -0.002, 0.000, 0.013, -0.009, 0.006, -0.009, -0.005, 0.009, 0.005, 0.007, 0.014, 0.004, 0.014, 0.003, -0.009, 0.002, -0.003, 0.011, 0.001, 0.008, 0.009, -0.005, -0.002, 0.001, -0.003, 0.002, 0.001, 0.006, 0.003, -0.003, -0.010, -0.009, 0.002, 0.001, -0.004, -0.009, 0.004, 0.006, -0.005, 0.007, -0.006, -0.004, 0.003, 0.006, 0.010, 0.006, 0.009, -0.004, -0.008, -0.007, -0.004, -0.008, -0.003, -0.005, -0.008, 0.004, -0.000, -0.007, -0.001, 0.002, 0.013, -0.011, 0.000, -0.007, -0.003, 0.007, 0.002, 0.006, -0.005, -0.010, 0.014, -0.012, 0.003, -0.011, 0.002, -0.009, 0.013, -0.010, -0.008, 0.005, 0.011, 0.005, -0.008, -0.003, 0.002, 0.009, -0.005, -0.004, 0.007, 0.005, 0.010, 0.008, 0.009, 0.013, -0.010, 0.002, -0.006, 0.010, -0.002, -0.003, -0.003, 0.008, -0.010, 0.004, -0.000, -0.004, -0.000, 0.007, -0.012, 0.003, -0.001, 0.000, 0.006, 0.000, -0.001, -0.011, -0.012, -0.001, -0.007, 0.009, -0.011, -0.004, -0.007, -0.004, -0.001, -0.006, -0.005, -0.008, -0.005, 0.003, -0.004, -0.009, 0.013, 0.003, -0.004, 0.002, -0.004, -0.009, -0.002, -0.010, 0.008, 0.011, 0.008, 0.013, 0.002, 0.009, 0.006, -0.001, -0.008, -0.004, -0.002, -0.002, 0.013, -0.001, 0.006, 0.005, -0.007, 0.012, -0.009, 0.012, 0.006, 0.001, 0.014, 0.007, -0.009, -0.005, -0.004, -0.008, -0.005, -0.005, 0.004, 0.000, 0.009, 0.001, -0.001, -0.006, 0.004, -0.010, 0.000, 0.010, 0.009, -0.006, 0.002, -0.003, 0.007, -0.009, -0.000, -0.010, 0.008, -0.006, -0.005, 0.003, -0.011, 0.011, 0.001, -0.002, -0.011, -0.004, -0.004, 0.005, 0.011, -0.002, 0.011, 0.003, 0.008, -0.001, 0.006, -0.003, 0.013, -0.002, 0.003, 0.000, 0.005, 0.007, 0.008, 0.005, -0.005, 0.001, -0.004, 0.005, -0.012, 0.003, -0.010, -0.004, 0.001, -0.006, 0.014, -0.006, 0.008, 0.004, -0.010, 0.011, -0.009, -0.012, -0.004, -0.012, 0.006, -0.012, 0.008, -0.008, 0.014, -0.007, 0.014, -0.010, 0.009, 0.000, 0.008, 0.007, 0.001, 0.014, -0.010, -0.008, 0.009, 0.005, -0.009, -0.008, 0.007, 0.009, 0.003, -0.004, 0.010, 0.012, 0.007, -0.011, 0.013, 0.005, -0.011, -0.003, -0.010, 0.008, 0.012, 0.007, -0.007, -0.012, 0.001, 0.005, -0.012, 0.005, 0.012, -0.007, 0.012, 0.011, 0.008, -0.002, -0.004, -0.010, 0.006, -0.002, -0.007, 0.010, -0.004, -0.004, 0.005, -0.009, -0.004, -0.007, 0.014, 0.013, 0.006, -0.005, -0.011, 0.013, 0.013, 0.004, 0.011, 0.006, 0.004, 0.007, -0.001, -0.003, 0.000, -0.011, 0.011, 0.012, -0.010, 0.012, 0.001, -0.004, -0.001, -0.001, -0.003, 0.001, -0.004, 0.007, 0.013, -0.003, 0.012, -0.006, -0.012, -0.003, -0.005, -0.001, -0.004, -0.002, 0.008, -0.011, 0.010, 0.013, -0.009, -0.006, -0.005, -0.012, 0.001, -0.005, -0.011, -0.009, 0.005, -0.001, 0.005, 0.002, 0.005, -0.011, -0.011, 0.010, -0.010, -0.006, -0.003, -0.004, -0.003, 0.013, -0.010, 0.015, -0.011, -0.003, -0.007, 0.003, 0.003, 0.004, 0.009, 0.014, -0.006, 0.001, -0.013, -0.005, -0.008, -0.007, 0.002, 0.009, 0.011, 0.003, -0.002, 0.004, 0.002, 0.000, 0.013, -0.002, 0.004, -0.002, -0.010, -0.006, -0.010, -0.004, 0.006, 0.009, 0.012, -0.004, 0.007, 0.006, -0.009, 0.003, 0.002, 0.010, 0.014, 0.003, 0.003, 0.004, -0.007, -0.011, -0.012, 0.003, -0.001, 0.004, -0.004, 0.008, -0.012, 0.002, 0.011, 0.009, -0.012, -0.003, 0.002, -0.001, -0.005, 0.012, 0.003, 0.010, -0.010, 0.012, 0.002, 0.008, -0.006, -0.008, -0.005, -0.003, -0.000, 0.003, 0.004, -0.009, 0.006, -0.005, 0.006, -0.005, -0.002, -0.001, 0.013, -0.002, 0.007, 0.003, 0.012, 0.008, -0.008, 0.001, -0.008, -0.008, 0.004, 0.003, -0.011, -0.010, 0.007, 0.002, -0.013, -0.008, 0.012, -0.009, -0.009, -0.004, -0.006, -0.011, 0.004, 0.009, -0.009, 0.013, -0.009, -0.002, -0.004, -0.012, -0.010, 0.006, 0.003, -0.004, -0.010, 0.011, 0.001, -0.001, -0.007, 0.000, -0.010, 0.008, 0.007, -0.002, -0.004, 0.008, -0.002, 0.013, -0.004, -0.010, -0.004, 0.000, -0.008, -0.012, -0.008, -0.012, 0.010, -0.012, 0.006, -0.011, -0.008, 0.006, 0.004, 0.006, -0.001, 0.002, -0.001, 0.004, -0.001, -0.009, 0.012, -0.010, 0.005, -0.008, 0.010, -0.010, -0.007, 0.007, 0.010, 0.009, 0.011, 0.004, 0.008, 0.007, -0.004, 0.003, 0.006, -0.001, -0.002, -0.006, -0.002, -0.006, -0.010, 0.008, -0.008, 0.004, 0.006, -0.013, -0.000, -0.002, 0.004, 0.006, -0.003, -0.005, 0.002, 0.012, 0.004, -0.006, 0.005, 0.001, -0.005, -0.011, 0.007, 0.004, 0.011, 0.004, -0.007, -0.007, -0.010, -0.002, 0.004, 0.013, -0.012, 0.005, -0.008, 0.008, -0.006, -0.007, 0.005, 0.010, 0.003, 0.001, -0.011, 0.005, 0.002, 0.010, -0.003, 0.002, 0.002, 0.001, 0.013, 0.010, 0.012, -0.009, -0.006, 0.012, -0.007, 0.000, 0.005, -0.004, 0.007, 0.001, 0.004, 0.002, -0.009, 0.005, -0.004, 0.006, 0.007, 0.001, 0.009, -0.010, -0.004, 0.007, -0.002, 0.003, -0.005, 0.007, -0.009, 0.011, 0.003, -0.001, -0.006, 0.005, 0.013, 0.003, -0.004, -0.004, 0.013, -0.008, -0.007, -0.005, -0.001, 0.003, -0.011, 0.009, 0.004, -0.001, 0.004, -0.008, 0.002, -0.004, 0.001, -0.011, 0.002, -0.012, -0.012, -0.000, -0.010, 0.010, 0.012, -0.012, -0.006, 0.005, 0.006, 0.005, 0.001, -0.001, -0.005, -0.009, -0.007, -0.009, 0.006, 0.009, -0.008, 0.008, 0.007, -0.011, -0.010, 0.007, -0.013, -0.006, 0.012, 0.011, -0.013, -0.011, -0.007, -0.005, 0.009, 0.005, 0.000, 0.012, -0.006, -0.003, 0.006, 0.003, 0.010, 0.005, 0.009, 0.001, -0.013, -0.013, 0.005, 0.012, 0.005, -0.001, -0.006, -0.006, -0.010, -0.005, -0.011, -0.000, 0.007, 0.012, 0.006, -0.003, -0.011, -0.001, 0.009, 0.004, 0.000, -0.002, 0.010, 0.001, -0.002, -0.011, 0.008, -0.004, -0.008, -0.011, 0.012, -0.009, 0.008, 0.001, -0.010, 0.001, -0.006, 0.012, 0.009, 0.003, -0.006, 0.011, 0.012, 0.007, -0.002, -0.011, -0.009, -0.010, 0.001, -0.007, -0.011, 0.010, 0.002, 0.012, 0.011, 0.011, 0.012, 0.002, 0.001, -0.006, 0.006, -0.004, 0.009, 0.011, 0.013, 0.013, -0.009, -0.011, 0.006, -0.007, 0.008, 0.011, -0.003, -0.013, -0.001, -0.013, -0.006, 0.002, -0.008, -0.004, 0.007, 0.007, 0.007, -0.010, 0.006, 0.009, -0.003, -0.013, -0.013, -0.003, 0.004, 0.005, -0.011, -0.007, -0.012, -0.001, 0.010, -0.012, 0.003, -0.012, -0.012, -0.007, 0.007, 0.012, -0.001, 0.005, -0.005, -0.004, 0.001, -0.008, 0.003, 0.002, 0.000, -0.002, -0.008, 0.001, -0.003, 0.010, -0.010, 0.002, 0.009, 0.003, 0.002, -0.001, -0.002, 0.001, -0.011, 0.003, -0.011, -0.004, 0.010, -0.005, -0.008, 0.009, -0.001, 0.006, -0.003, 0.007, 0.009, -0.009, 0.013, 0.008, 0.012, 0.011, -0.009, -0.004, -0.012, -0.006, 0.011, 0.013, -0.005, 0.010, 0.013, -0.002, 0.010, -0.006, 0.007, 0.004, -0.012, -0.010, -0.009, -0.011, -0.012, 0.009, 0.002, 0.004, 0.008, 0.002, -0.004, 0.005, -0.002, 0.003, -0.000, 0.002, 0.007, -0.009, 0.002, -0.006, 0.013, 0.001, 0.001, -0.006, -0.011, 0.006, 0.000, -0.009, 0.013, 0.012, 0.014, -0.006, 0.011, 0.007, 0.013, -0.009, -0.011, -0.005, 0.001, -0.004, -0.009, -0.003, 0.009, -0.001, -0.010, -0.011, -0.009, -0.010, 0.011, 0.008, -0.007, -0.012, 0.010, -0.005, 0.013, -0.011, 0.007, -0.011, 0.004, -0.009, 0.013, -0.010, 0.002, -0.011, -0.004, 0.013, -0.000, -0.001, 0.011, 0.006, 0.006, 0.010, 0.005, -0.011, -0.010, -0.006, 0.011, 0.003, -0.001, -0.000, 0.008, 0.008, 0.007, 0.012, 0.009, 0.012, -0.012, 0.006, -0.002, -0.013, 0.006, 0.008, 0.009, 0.011, 0.011, -0.013, -0.006, -0.002, -0.012, -0.001, -0.004, 0.008, -0.008, -0.010, -0.009, 0.012, -0.013, -0.007, -0.011, -0.004, 0.005, 0.005, 0.009, -0.012, 0.013, 0.008, -0.012, -0.005, 0.011, -0.005, -0.003, 0.013, -0.011, -0.011, 0.011, 0.007, -0.012, -0.008, -0.012, 0.003, 0.005, 0.010, 0.007, 0.009, 0.008, 0.007, -0.004, -0.012, -0.007, -0.009, 0.008, 0.013, -0.011, 0.013, -0.010, -0.003, 0.003, -0.009, 0.009, 0.012, -0.010, 0.012, 0.003, 0.011, 0.010, 0.004, 0.002, 0.014, -0.009, 0.006, -0.012, -0.008, 0.008, -0.007, 0.011, 0.009, 0.014, -0.002, 0.005, -0.012, -0.005, -0.011, 0.013, 0.002, -0.000, -0.012, -0.011, 0.008, -0.012, -0.001, 0.002, 0.000, 0.004, -0.010, -0.005, -0.010, 0.009, 0.012, 0.004, 0.012, -0.011, -0.009, -0.007, -0.006, -0.002, -0.001, 0.013, 0.012, 0.004, -0.001, 0.008, -0.007, -0.011, 0.011, -0.002, 0.010, 0.010, -0.010, -0.009, -0.002, -0.002, -0.000, -0.011, 0.011, -0.002, 0.003, -0.004, 0.001, -0.005, 0.004, -0.011, 0.013, -0.001, -0.001, -0.001, 0.010, -0.001, 0.008, 0.008, 0.004, -0.004, -0.008, -0.001, 0.004, 0.011, 0.013, 0.000, -0.007, 0.013, -0.006, 0.004, 0.002, 0.012, 0.005, -0.003, 0.007, 0.001, -0.007, 0.002, -0.003, -0.002, 0.012, -0.003, -0.011, 0.010, -0.007, 0.013, 0.013, -0.002, -0.008, -0.004, 0.008, -0.011, -0.003, 0.013, 0.012, -0.005, -0.001, 0.007, -0.003, -0.010, 0.009, -0.009, -0.005, -0.008, -0.002, -0.002, 0.009, 0.005, -0.013, -0.003, 0.000, -0.012, 0.003, 0.013, -0.007, -0.002, -0.004, -0.006, 0.005, -0.009, 0.004, 0.000, 0.006, 0.005, 0.014, 0.008, -0.002, -0.006, -0.009, -0.010, 0.004, 0.011, -0.008, -0.008, -0.009, 0.001, 0.005, 0.010, -0.003, 0.002, -0.005, -0.003, -0.006, 0.009, -0.011, 0.010, 0.004, -0.001, 0.007, 0.009, -0.008, -0.010, 0.002, 0.007, -0.009, 0.004, -0.006, -0.004, 0.011, 0.004, 0.003, 0.009, -0.002, 0.001, -0.008, 0.011, -0.012, 0.008, -0.007, -0.001, 0.007, -0.013, -0.006, -0.002, -0.011, 0.011, -0.006, -0.012, 0.009, 0.013, -0.005, -0.009, 0.012, 0.000, -0.009, 0.007, 0.013, 0.010, 0.004, 0.001, 0.006, 0.002, 0.001, -0.001, 0.004, -0.003, 0.012, -0.007, 0.000, 0.010, 0.003, 0.006, -0.000, 0.004, -0.000, 0.011, -0.010, -0.006, -0.006, -0.004, 0.003, 0.008, 0.007, -0.000, 0.009, -0.007, 0.009, -0.002, -0.001, 0.004, -0.010, -0.001, -0.003, -0.003, 0.011, -0.002, -0.001, -0.011, -0.006, -0.002, -0.011, 0.003, 0.004, -0.009, 0.000, 0.012, 0.002, -0.007, 0.012, -0.008, 0.000, -0.010, 0.009, -0.011, 0.005, 0.012, 0.006, 0.013, 0.010, 0.008, -0.005, 0.000, 0.010, 0.009, -0.008, 0.004, 0.008, -0.005, -0.003, 0.006, 0.001, 0.006, 0.007, 0.008, -0.001, 0.011, 0.009, -0.003, -0.004, -0.011, 0.004, -0.004, -0.013, 0.006, -0.009, -0.004, 0.004, 0.010, 0.005, -0.001, 0.010, 0.008, 0.005, 0.003, -0.000, -0.010, 0.002, 0.011, -0.006, -0.008, -0.006, 0.008, 0.008, 0.003, -0.000, -0.008, 0.008, -0.003, 0.001, -0.005, -0.009, 0.003, 0.001, 0.000, -0.012, 0.008, 0.002, -0.011, 0.003, 0.007, -0.012, -0.008, 0.012, -0.010, -0.010, 0.003, -0.012, 0.011, -0.000, 0.012, -0.005, 0.003, 0.008, 0.003, 0.014, 0.013, 0.003, -0.010, -0.008, 0.003, 0.003, 0.011, -0.011, 0.006, -0.011, -0.009, 0.009, 0.004, -0.005, -0.005, 0.004, -0.001, 0.000, -0.004, -0.006, 0.001, -0.007, -0.012, 0.011, -0.004, -0.006, 0.004, -0.003, 0.007, -0.001, -0.002, -0.003, 0.006, -0.004, 0.010, -0.008, -0.009, -0.001, 0.011, 0.010, 0.003, -0.008, 0.002, 0.010, -0.011, 0.013, 0.008, -0.003, 0.004, -0.007, 0.002, -0.006, -0.012, -0.003, -0.006, -0.011, -0.001, -0.006, -0.003, -0.003, 0.000, 0.008, 0.012, -0.008, -0.009, -0.009, -0.011, 0.005, 0.006, 0.011, 0.011, 0.000, -0.005, 0.012, -0.004, -0.008, 0.011, 0.004, 0.001, -0.008, -0.007, -0.008, 0.002, -0.005, 0.013, -0.006, -0.010, -0.005, -0.003, 0.003, -0.010, 0.009, 0.005, -0.007, -0.008, -0.001, 0.012, -0.006, 0.006, 0.013, 0.004, -0.001, -0.003, 0.012, 0.006, -0.006, -0.009, 0.006, -0.007, -0.007, -0.001, -0.000, -0.004, 0.006, 0.001, 0.007, 0.004, -0.009, 0.011, 0.009, 0.009, -0.011, 0.002, 0.004, 0.004, 0.011, 0.001, -0.008, -0.006, -0.008, -0.011, 0.005, -0.004, 0.012, 0.011, 0.011, 0.012, -0.007, 0.008, 0.010, 0.003, -0.003, 0.014, 0.001, 0.005, -0.010, -0.006, -0.009, 0.006, 0.004, 0.007, 0.007, -0.009, -0.008, 0.001, 0.011, -0.000, -0.006, -0.012, -0.001, 0.009, -0.005, -0.004, 0.004, 0.006, 0.002, -0.009, -0.010, 0.013, -0.004, -0.005, 0.000, 0.004, -0.011, 0.008, -0.002, 0.001, 0.005, -0.012, 0.009, 0.011, -0.009, -0.003, 0.004, -0.002, -0.005, 0.009, 0.003, -0.009, -0.001, 0.006, 0.008, -0.009, 0.003, -0.009, 0.011, -0.005, 0.010, -0.013, 0.012, -0.009, -0.005, -0.002, 0.005, -0.006, -0.003, -0.007, -0.003, -0.010, -0.012, -0.012, -0.004, 0.001, 0.009, -0.012, -0.010, -0.009, 0.007, 0.005, -0.000, -0.008, -0.006, 0.000, -0.001, -0.011, 0.011, 0.014, 0.002, 0.003, -0.009, 0.012, -0.009, -0.010, -0.005, 0.003, -0.006, -0.009, -0.010, -0.007, 0.008, 0.002, -0.008, 0.011, 0.012, 0.003, -0.011, -0.010, 0.010, -0.005, -0.009, -0.003, 0.003, -0.011, 0.013, 0.006, -0.010, -0.008, 0.012, -0.006, 0.006, -0.010, 0.003, -0.011, -0.006, -0.011, 0.007, 0.007, 0.007, -0.010, 0.009, -0.009, -0.001, 0.009, 0.004, -0.005, 0.004, -0.013, 0.004, 0.006, 0.007, -0.004, 0.005, -0.013, 0.013, 0.003, -0.002, -0.012, 0.009, 0.004, -0.005, 0.001, 0.004, 0.001, 0.003, 0.010, 0.013, -0.001, 0.013, 0.008, 0.013, 0.010, 0.007, 0.011, 0.012, 0.007, -0.012, -0.008, -0.006, -0.005, 0.003, -0.004, 0.012, 0.004, 0.013, 0.003, 0.006, -0.011, 0.001, -0.002, 0.011, 0.005, 0.009, -0.002, 0.009, -0.010, 0.004, -0.010, -0.004, 0.012, 0.000, 0.005, 0.008, 0.005, 0.004, 0.010, 0.013, -0.006, 0.006, -0.010, -0.002, -0.005, -0.008, -0.004, -0.011, -0.004, 0.011, -0.006, 0.014, 0.007, 0.002, 0.012, -0.007, 0.003, 0.001, 0.008, -0.011, -0.011, 0.009, -0.012, 0.011, -0.002, 0.012, 0.001, 0.008, 0.007, 0.003, 0.003, -0.004, -0.000, -0.005, -0.003, -0.005, 0.011, -0.005, -0.004, -0.001, -0.001, 0.003, 0.002, -0.008, -0.007, 0.008, 0.013, -0.001, 0.007, 0.014, -0.002, 0.005, -0.004, 0.005, -0.003, 0.006, -0.008, -0.007, -0.010, -0.005, 0.011, -0.013, -0.008, 0.012, 0.001, -0.001, 0.011, -0.004, 0.002, 0.011, 0.002, 0.006, -0.008, -0.000, -0.010, 0.005, 0.012, -0.001, 0.002, -0.005, -0.009, -0.008, 0.000, -0.002, -0.009, 0.012, 0.014, -0.002, -0.002, -0.007, -0.006, -0.010, -0.005, 0.007, 0.008, -0.000, 0.002, -0.003, 0.000, -0.001, 0.013, -0.007, 0.002, -0.011, 0.012, -0.005, -0.009, -0.003, -0.005, 0.003, -0.008, 0.008, 0.010, 0.011, -0.004, -0.008, 0.006, 0.006, 0.009, 0.010, 0.001, -0.004, -0.005, 0.003, 0.012, 0.003, 0.004, 0.014, 0.007, -0.002, 0.001, 0.001, 0.000, -0.006, 0.002, 0.011, -0.012, 0.009, -0.000, -0.008, -0.010, 0.011, -0.004, -0.005, -0.002, 0.009, 0.009, -0.005, -0.010, 0.004, 0.004, 0.013, -0.013, 0.001, -0.002, 0.002, 0.006, -0.001, -0.003, 0.005, -0.005, 0.004, 0.010, 0.013, 0.001, 0.006, 0.005, 0.007, 0.010, -0.009, 0.005, 0.007, 0.009, -0.005, -0.007, 0.010, -0.004, 0.008, -0.003, -0.010, 0.001, -0.010, -0.004, -0.003, 0.010, 0.003, 0.006, -0.012, -0.008, -0.008, 0.012, 0.012, -0.009, -0.012, 0.010, 0.003, -0.006, -0.003, 0.012, 0.009, 0.013, -0.007, -0.002, -0.004, 0.008, -0.005, -0.004, -0.002, 0.004, -0.010, 0.011, 0.008, 0.005, 0.011, 0.010, 0.000, 0.012, 0.007, -0.011, -0.004, 0.002, -0.009, -0.010, 0.009, -0.004, -0.007, -0.011, 0.004, -0.001, -0.003, 0.011, 0.010, 0.006, -0.001, 0.010, -0.003, 0.002, -0.003, 0.008, 0.004, 0.012, 0.004, -0.012, 0.003, -0.010, -0.009, -0.007, 0.001, -0.010, 0.005, -0.001, 0.009, -0.005, 0.009, -0.001, 0.012, -0.002, -0.008, 0.005, 0.003, -0.010, 0.001, -0.010, 0.005, -0.004, 0.011, -0.004, 0.003, -0.010, 0.003, 0.000, -0.012, -0.012, 0.005, -0.002, 0.013, 0.004, -0.011, 0.009, -0.001, -0.009, 0.013, 0.007, -0.003, -0.011, -0.004, 0.004, -0.003, -0.007, 0.002, 0.001, 0.006, 0.006, 0.013, 0.001, 0.012, 0.003, 0.009, 0.009, 0.008, -0.009, 0.004, 0.006, 0.011, -0.002, 0.012, -0.003, 0.002, 0.012, -0.003, 0.007, 0.007, 0.001, 0.005, 0.008, 0.003, -0.006, 0.005, -0.002, -0.009, 0.003, -0.001, 0.004, -0.007, 0.013, 0.009, -0.007, -0.006, 0.006, -0.006, -0.007, -0.007, 0.013, 0.005, 0.012, 0.003, 0.012, 0.002, 0.004, 0.001, -0.010, -0.005, 0.010, 0.007, 0.000, -0.013, -0.002, 0.002, -0.004, -0.011, 0.005, -0.012, 0.008, 0.007, 0.009, 0.006, 0.008, 0.008, 0.007, -0.006, 0.004, 0.009, 0.008, -0.001, 0.008, -0.007, 0.008, 0.002, 0.004, -0.011, 0.011, 0.009, -0.005, 0.013, 0.003, -0.004, -0.003, 0.011, -0.013, 0.009, -0.005, -0.002, -0.007, -0.006, -0.004, -0.007, 0.002, -0.006, -0.010, -0.005, -0.010, 0.002, 0.009, 0.006, -0.002, 0.004, 0.002, -0.005, 0.004, -0.006, 0.009, 0.011, 0.003, 0.010, -0.005, 0.008, -0.008, -0.005, -0.008, -0.009, -0.008, -0.005, -0.007, -0.002, 0.009, 0.005, -0.005, 0.010, -0.000, -0.006, -0.002, 0.012, -0.003, 0.013, -0.013, -0.010, -0.010, -0.002, 0.006, 0.013, 0.011, -0.011, 0.006, 0.001, 0.001, -0.009, 0.004, -0.011, 0.008, -0.002, 0.011, 0.006, 0.010, -0.010, 0.011, -0.008, 0.010, 0.009, 0.007, 0.009, 0.013, 0.011, 0.002, 0.003, 0.001, 0.000, 0.003, 0.008, 0.011, 0.009, -0.008, 0.002, 0.003, -0.011, 0.007, 0.006, 0.007, -0.007, 0.013, 0.011, 0.011, -0.003, -0.009, 0.010, 0.013, -0.011, 0.001, -0.008, 0.008, -0.003, 0.012, -0.012, 0.011, -0.001, -0.011, -0.010, 0.004, -0.006, -0.011, 0.013, 0.009, 0.001, -0.004, 0.009, 0.012, -0.000, -0.008, -0.008, 0.008, -0.006, -0.011, 0.006, -0.013, -0.002, -0.006, -0.001, -0.008, 0.011, -0.003, -0.010, 0.007, 0.006, -0.012, 0.011, 0.012, -0.001, -0.011, -0.002, -0.003, -0.010, 0.004, -0.004, 0.013, 0.002, -0.001, -0.010, 0.005, -0.011, -0.004, -0.011, -0.007, 0.010, 0.000, 0.012, -0.006, -0.012, -0.009, -0.001, -0.003, -0.012, -0.010, 0.012, -0.005, 0.008, -0.007, 0.005, 0.013, -0.013, -0.011, -0.004, -0.003, -0.000, 0.004, -0.011, 0.013, 0.011, 0.008, -0.007, 0.006, -0.010, 0.002, 0.004, -0.002, 0.011, 0.004, 0.012, 0.011, 0.000, -0.006, -0.010, 0.004, 0.008, 0.009, 0.012, 0.003, -0.008, -0.009, 0.000, 0.003, 0.002, -0.012, 0.012, 0.007, 0.003, 0.008, -0.004, -0.001, -0.004, -0.000, 0.005, 0.006, 0.001, -0.007, 0.009, 0.001, 0.005, 0.013, 0.009, -0.002, -0.001, 0.007, -0.012, -0.002, -0.003, -0.000, -0.011, -0.006, -0.012, 0.004, -0.005, -0.008, 0.011, 0.007, 0.003, 0.002, -0.011, -0.007, 0.012, -0.012, 0.010, 0.003, -0.011, 0.002, -0.010, 0.008, 0.002, -0.002, -0.009, 0.004, -0.011, -0.012, -0.001, -0.009, 0.010, 0.004, 0.001, 0.001, 0.009, -0.000, 0.002, -0.008, -0.002, -0.004, -0.012, 0.002, -0.001, 0.010, 0.006, 0.007, 0.004, -0.009, -0.011, 0.003, 0.010, 0.010, 0.014, 0.013, 0.002, -0.002, -0.011, 0.004, -0.003, -0.006, -0.010, 0.008, 0.003, 0.009, 0.012, -0.001, 0.004, -0.007, 0.007, 0.001, -0.011, 0.014, -0.009, -0.011, -0.006, 0.002, 0.001, 0.005, -0.002, -0.008, -0.002, 0.003, -0.002, -0.004, -0.000, -0.011, 0.006, 0.002, -0.007, 0.001, -0.010, -0.011, -0.010, 0.008, 0.000, 0.003, -0.000, 0.001, -0.007, -0.002, 0.005, 0.001, -0.012, -0.012, -0.011, -0.005, 0.012, 0.010, 0.003, 0.013, 0.010, -0.009, 0.012, 0.002, -0.000, -0.003, -0.000, -0.007, -0.012, -0.010, -0.011, 0.011, 0.004, 0.005, 0.006, 0.000, -0.007, -0.001, 0.002, 0.003, -0.008, 0.012, 0.012, -0.001, -0.008, 0.008, -0.005, 0.009, 0.001, -0.003, 0.007, 0.004, 0.001, -0.001, 0.001, -0.010, -0.009, 0.012, -0.005, 0.001, -0.001, 0.000, 0.008, -0.001, -0.010, -0.001, 0.005, -0.001, 0.006, -0.010, -0.009, 0.009, 0.000, -0.008, 0.008, 0.010, 0.005, 0.014, 0.011, -0.011, -0.011, 0.005, -0.007, -0.002, -0.007, -0.004, -0.013, -0.000, 0.010, 0.011, -0.006, 0.007, 0.002, -0.002, -0.011, 0.011, -0.000, -0.005, -0.006, 0.012, -0.004, -0.010, -0.003, 0.005, -0.009, 0.012, -0.004, -0.001, 0.002, -0.008, -0.005, 0.013, -0.005, -0.009, -0.007, 0.011, -0.005, 0.001, 0.005, -0.010, 0.014, -0.012, -0.001, -0.013, 0.008, 0.002, -0.001, -0.006, 0.008, 0.010, 0.006, 0.001, 0.014, -0.009, -0.009, 0.008, -0.002, 0.001, 0.014, 0.010, 0.001, -0.009, 0.008, 0.009, 0.009, 0.010, -0.005, 0.002, 0.008, -0.003, 0.000, -0.007, -0.009, -0.002, 0.012, -0.010, -0.008, 0.004, 0.004, -0.002, 0.013, -0.012, -0.009, -0.007, -0.010, -0.007, -0.011, 0.010, 0.004, 0.010, -0.011, -0.012, 0.011, -0.011, 0.011, 0.008, 0.009, 0.005, -0.011, 0.006, 0.010, 0.010, -0.012, 0.005, -0.002, 0.001, -0.006, -0.006, 0.002, 0.006, -0.010, -0.006, -0.007, 0.009, 0.011, -0.001, 0.010, -0.002, 0.010, -0.008, -0.008, 0.003, -0.012, -0.002, 0.002, -0.001, -0.006, -0.000, 0.005, -0.000, 0.013, -0.001, 0.011, 0.013, 0.001, -0.010, -0.003, -0.005, -0.010, -0.007, -0.005, 0.004, 0.002, 0.012, -0.008, 0.003, 0.004, 0.006, 0.000, 0.006, 0.003, -0.003, 0.003, -0.012, 0.014, 0.006, 0.003, 0.002, -0.007, 0.004, -0.006, 0.001, -0.012, -0.012, 0.003, -0.006, 0.009, 0.014, -0.008, 0.005, 0.004, 0.002, 0.010, 0.012, 0.001, 0.005, 0.008, 0.012, 0.010, -0.012, -0.013, -0.010, 0.005, -0.001, 0.006, 0.012, 0.010, 0.013, 0.013, 0.014, -0.011, 0.010, -0.001, 0.010, -0.007, -0.010, 0.012, -0.012, -0.004, -0.007, 0.013, 0.013, -0.003, 0.010, 0.005, 0.013, 0.013, 0.010, 0.002, 0.003, -0.001, 0.011, -0.010, 0.000, -0.006, -0.008, 0.002, -0.000, -0.011, -0.010, -0.009, 0.008, 0.009, -0.008, -0.002, -0.001, 0.004, 0.012, -0.009, -0.006, 0.001, 0.001, 0.002, 0.003, 0.003, -0.003, -0.003, -0.006, 0.009, -0.011, -0.001, 0.013, 0.004, -0.004, 0.008, 0.011, 0.003, 0.009, -0.004, -0.006, 0.014, -0.004, -0.007, 0.006, 0.006, -0.011, -0.008, 0.001, 0.000, -0.003, 0.006, 0.012, 0.003, 0.008, 0.007, -0.011, 0.002, -0.001, -0.004, -0.008, 0.002, -0.002, -0.004, -0.005, 0.010, 0.003, -0.003, -0.006, -0.013, 0.004, 0.004, 0.011, -0.010, -0.004, -0.011, -0.010, -0.007, -0.002, 0.005, 0.014, 0.002, -0.002, 0.004, -0.008, -0.000, -0.006, 0.004, -0.004, 0.006, 0.006, 0.011, 0.007, 0.002, 0.006, 0.001, 0.003, 0.008, 0.003, 0.000, 0.013, -0.012, -0.005, -0.006, -0.012, 0.012, 0.011, -0.005, -0.010, -0.006, 0.009, -0.011, 0.011, 0.008, -0.009, -0.008, -0.008, -0.004, -0.008, 0.008, 0.008, -0.004, -0.004, -0.009, 0.002, -0.002, 0.002, 0.008, -0.004, -0.004, -0.009, -0.005, 0.012, -0.004, -0.010, 0.003, 0.002, 0.005, -0.009, -0.005, -0.002, -0.010, 0.011, 0.009, 0.003, 0.007, -0.004, -0.002, -0.004, -0.010, 0.008, 0.009, 0.002, 0.001, 0.014, 0.014, 0.001, 0.006, 0.003, -0.006, 0.002, 0.004, -0.008, 0.004, -0.009, -0.003, -0.002, 0.007, 0.009, -0.003, -0.007, -0.002, 0.005, -0.004, -0.012, 0.002, -0.004, 0.006, 0.003, 0.009, 0.002, -0.005, 0.012, 0.005, 0.012, -0.005, 0.008, -0.010, 0.012, 0.013, 0.011, -0.002, -0.008, -0.004, 0.014, 0.007, -0.005, -0.010, 0.005, -0.001, 0.014, -0.004, -0.008, 0.007, 0.006, -0.002, 0.012, 0.002, 0.005, 0.002, 0.013, 0.012, -0.002, 0.005, -0.006, -0.013, 0.000, -0.002, 0.008, 0.001, -0.001, -0.001, -0.010, -0.004, 0.009, -0.004, 0.013, 0.002, -0.006, -0.002, 0.013, -0.007, -0.001, -0.002, 0.015, -0.004, 0.015, 0.009, -0.011, 0.010, -0.007, -0.006, -0.005, -0.005, 0.012, 0.012, -0.003, -0.008, -0.008, -0.011, 0.013, 0.001, -0.008, -0.012, 0.012, -0.003, -0.007, -0.008, -0.007, 0.006, -0.005, 0.006, 0.000, 0.013, -0.002, 0.010, 0.006, 0.014, -0.003, 0.004, -0.007, -0.005, 0.011, -0.006, -0.001, -0.004, 0.013, 0.004, 0.001, 0.006, -0.002, 0.003, -0.003, -0.004, 0.003, -0.006, 0.012, 0.006, 0.007, 0.010, -0.010, -0.006, 0.010, 0.006, 0.013, 0.009, -0.006, -0.012, 0.005, -0.007, 0.006, -0.004, -0.003, -0.004, 0.013, 0.012, 0.010, -0.006, 0.005, 0.012, -0.003, 0.004, 0.010, 0.002, 0.002, 0.005, -0.008, 0.014, 0.014, -0.004, 0.011, -0.007, 0.005, 0.002, -0.010, 0.001, -0.001, -0.007, -0.001, -0.013, -0.005, 0.001, -0.011, 0.007, -0.002, -0.005, -0.008, -0.004, 0.004, -0.002, 0.008, 0.003, 0.001, 0.011, -0.008, -0.001, -0.002, -0.001, 0.010, -0.009, 0.003, -0.010, -0.005, -0.009, 0.007, -0.002, 0.002, -0.008, 0.010, -0.009, -0.005, -0.005, 0.007, 0.001, -0.004, -0.010, 0.004, -0.008, -0.003, 0.006, -0.003, 0.009, -0.000, -0.011, -0.010, -0.005, 0.007, 0.005, -0.012, -0.007, 0.014, -0.012, -0.008, 0.003, 0.010, -0.000, -0.006, -0.002, -0.002, -0.004, 0.013, -0.011, 0.003, -0.004, 0.014, 0.008, 0.008, 0.012, -0.007, -0.007, 0.011, 0.001, -0.000, 0.004, 0.011, 0.013, 0.006, 0.004, -0.002, 0.012, -0.003, -0.008, -0.002, -0.005, -0.004, 0.002, 0.001, -0.010, 0.003, 0.004, 0.003, -0.005, -0.003, 0.007, -0.002, 0.009, 0.012, 0.002, -0.004, -0.007, 0.013, -0.003, -0.005, 0.012, -0.001, -0.000, -0.010, -0.000, -0.000, -0.003, 0.007, 0.008, 0.009, -0.008, -0.004, -0.008, -0.009, 0.005, -0.007, -0.002, -0.002, -0.009, 0.011, -0.009, -0.002, -0.010, -0.007, -0.002, -0.003, -0.010, 0.013, 0.002, -0.007, 0.001, 0.005, 0.014, -0.005, 0.013, 0.006, -0.007, 0.001, 0.008, -0.004, -0.000, -0.002, 0.003, -0.009, -0.004, 0.010, -0.003, 0.003, -0.011, -0.013, -0.009, -0.011, 0.009, -0.000, 0.006, 0.012, 0.013, -0.002, 0.014, -0.010, 0.012, -0.008, 0.010, 0.012, 0.007, -0.002, -0.005, 0.010, -0.001, 0.010, -0.009, 0.007, -0.002, -0.004, 0.011, -0.008, 0.002, 0.002, 0.008, -0.000, -0.007, -0.005, -0.005, 0.003, -0.010, 0.013, -0.002, 0.006, -0.000, -0.001, 0.012, 0.007, 0.010, -0.007, -0.006, 0.007, 0.008, 0.003, -0.010, -0.008, -0.009, -0.001, -0.008, 0.002, -0.010, 0.008, 0.005, 0.001, 0.010, 0.003, -0.000, 0.011, -0.009, -0.004, 0.006, -0.008, -0.001, -0.010, 0.012, -0.004, 0.014, -0.009, -0.007, 0.014, -0.008, -0.003, 0.006, 0.006, 0.005, 0.008, 0.003, 0.001, 0.006, 0.012, 0.008, 0.013, -0.005, 0.007, -0.012, 0.013, 0.014, -0.010, 0.005, 0.007, -0.004, -0.007, -0.012, 0.006, 0.011, 0.007, -0.003, 0.004, 0.004, 0.010, 0.008, 0.006, 0.005, -0.003, -0.010, -0.006, 0.011, 0.012, -0.003, 0.012, 0.010, 0.005, 0.013, -0.008, 0.009, -0.012, -0.002, 0.001, 0.014, -0.010, -0.001, 0.010, -0.003, 0.007, 0.005, -0.004, -0.003, 0.008, -0.006, -0.000, -0.010, -0.006, 0.007, 0.010, -0.005, 0.011, -0.002, -0.011, -0.008, -0.002, 0.001, 0.003, 0.006, -0.000, 0.004, 0.001, -0.000, -0.003, -0.005, -0.010, 0.011, -0.002, 0.014, 0.007, 0.001, 0.002, 0.013, -0.009, 0.001, 0.002, 0.001, -0.001, -0.009, 0.006, -0.010, -0.012, 0.013, -0.001, 0.002, -0.004, 0.003, 0.002, -0.004, 0.012, -0.003, -0.009, -0.009, -0.001, -0.007, 0.011, -0.005, 0.004, 0.011, 0.006, 0.012, -0.001, 0.011, -0.002, 0.000, 0.001, 0.012, 0.013, -0.009, -0.002, 0.009, 0.011, 0.010, -0.001, 0.004, 0.010, 0.003, -0.013, -0.009, -0.008, -0.004, 0.008, -0.008, 0.011, -0.001, -0.002, 0.006, 0.010, -0.006, 0.004, -0.004, -0.003, -0.004, 0.005, 0.007, -0.010, -0.004, 0.005, -0.010, -0.009, 0.002, -0.011, 0.008, 0.009, -0.011, -0.011, -0.010, 0.008, -0.011, 0.003, -0.009, -0.006, -0.007, -0.001, -0.004, 0.003, 0.000, 0.006, 0.005, 0.005, -0.003, -0.001, 0.010, 0.012, 0.003, -0.003, -0.002, 0.008, -0.004, -0.005, -0.008, -0.009, 0.010, 0.000, 0.007, 0.004, 0.001, 0.012, 0.002, -0.003, -0.006, 0.014, -0.004, 0.013, -0.006, -0.005, 0.006, -0.005, -0.001, -0.009, -0.012, 0.006, 0.011, 0.001, 0.013, 0.010, 0.012, 0.003, -0.013, 0.007, 0.011, -0.009, 0.003, 0.002, 0.012, 0.008, 0.014, -0.001, 0.000, 0.006, 0.007, -0.000, 0.008, 0.013, -0.006, -0.008, 0.002, -0.008, 0.007, -0.001, -0.011, -0.006, 0.010, -0.012, 0.008, 0.014, -0.002, -0.006, 0.001, -0.011, -0.003, 0.013, -0.000, 0.003, 0.012, 0.001, 0.007, 0.004, 0.005, 0.001, -0.003, -0.013, 0.004, -0.012, 0.010, 0.007, -0.011, -0.002, 0.006, 0.012, -0.008, -0.010, -0.008, -0.006, -0.011, -0.001, -0.004, 0.005, -0.006, 0.001, -0.005, -0.012, -0.007, -0.004, 0.009, 0.013, 0.010, 0.008, -0.010, -0.003, -0.003, 0.012, -0.003, -0.002, 0.007, -0.010, 0.002, 0.007, 0.004, -0.005, -0.004, -0.000, -0.002, 0.013, -0.003, 0.013, 0.011, 0.010, -0.012, 0.000, -0.006, -0.011, -0.001, 0.012, -0.010, 0.006, 0.010, 0.004, -0.010, 0.013, 0.007, -0.001, -0.001, -0.003, 0.005, -0.002, 0.006, 0.004, 0.004, 0.002, -0.002, -0.002, 0.013, 0.005, 0.005, -0.008, 0.001, -0.005, 0.014, 0.007, 0.011, 0.006, -0.009, -0.001, 0.005, -0.000, -0.003, -0.001, -0.000, 0.004, 0.007, -0.003, -0.008, -0.010, -0.003, 0.012, 0.014, 0.007, -0.009, 0.013, 0.013, 0.003, -0.009, -0.004, -0.003, 0.003, 0.007, 0.006, -0.003, 0.015, -0.010, 0.010, -0.000, -0.011, 0.006, 0.011, 0.004, 0.012, 0.007, -0.003, 0.007, -0.012, -0.007, -0.002, 0.001, 0.001, 0.008, 0.001, 0.010, -0.011, -0.002, -0.005, 0.011, 0.004, 0.003, 0.007, 0.013, 0.003, -0.005, -0.002, -0.007, -0.007, -0.010, 0.010, -0.008, -0.005, 0.009, 0.014, 0.010, -0.006, -0.008, -0.007, 0.001, -0.007, 0.010, 0.002, 0.003, -0.006, -0.005, 0.014, -0.001, -0.003, 0.008, 0.003, 0.011, 0.009, -0.002, 0.006, 0.006, 0.009, 0.006, 0.008, -0.010, 0.003, 0.000, -0.001, -0.010, 0.001, 0.013, 0.007, 0.004, -0.005, -0.000, -0.005, 0.007, -0.010, 0.004, 0.008, -0.002, 0.006, 0.002, 0.006, 0.012, -0.001, 0.010, 0.014, -0.008, -0.002, -0.008, -0.006, -0.011, -0.005, 0.011, 0.005, -0.007, -0.010, 0.005, 0.009, 0.013, -0.007, 0.012, 0.007, 0.008, 0.003, -0.012, 0.004, -0.011, -0.001, -0.004, -0.004, -0.001, 0.007, 0.010, -0.001, 0.013, -0.002, -0.005, 0.014, -0.007, 0.006, 0.008, 0.009, -0.003, -0.001, 0.011, 0.001, -0.005, 0.012, -0.002, -0.013, 0.002, -0.001, -0.002, -0.002, 0.006, 0.005, 0.010, -0.004, 0.013, 0.009, -0.006, 0.007, 0.010, 0.004, 0.012, -0.013, -0.004, 0.001, -0.009, 0.005, 0.013, -0.003, -0.011, 0.001, 0.003, 0.008, -0.007, 0.011, -0.007, -0.003, -0.006, -0.009, -0.010, 0.009, -0.004, 0.006, -0.007, 0.012, 0.010, 0.010, 0.006, -0.006, -0.005, -0.008, -0.010, 0.009, 0.000, 0.009, 0.009, -0.003, -0.005, -0.002, -0.001, -0.007, 0.011, -0.008, 0.001, -0.000, -0.007, 0.003, -0.001, -0.011, -0.011, -0.006, 0.014, 0.012, 0.010, 0.005, 0.001, 0.010, -0.001, -0.000, -0.007, 0.010, -0.006, 0.003, 0.012, 0.007, 0.001, -0.005, 0.010, -0.003, 0.007, -0.003, -0.002, 0.007, 0.005, 0.009, 0.005, 0.013, -0.004, -0.002, -0.005, -0.013, 0.001, -0.007, -0.003, -0.013, -0.012, -0.010, -0.010, 0.000, 0.007, -0.006, 0.011, 0.006, 0.010, 0.011, 0.010, -0.005, 0.010, 0.003, 0.012, 0.000, 0.014, -0.012, 0.008, 0.001, 0.013, 0.007, -0.012, -0.008, 0.005, -0.001, -0.008, 0.010, 0.005, 0.012, -0.001, 0.006, 0.014, 0.013, -0.007, -0.010, -0.013, 0.009, 0.000, -0.012, -0.002, -0.013, -0.010, 0.009, 0.012, -0.007, -0.012, -0.000, -0.009, -0.002, 0.012, -0.007, -0.005, 0.008, -0.000, -0.010, -0.007, -0.006, 0.011, -0.001, -0.012, -0.009, -0.003, 0.011, -0.008, 0.007, -0.002, -0.003, -0.010, -0.011, 0.005, 0.002, -0.006, 0.003, 0.006, 0.004, 0.009, 0.002, 0.005, 0.011, -0.013, -0.014, -0.004, -0.009, -0.005, 0.002, 